0.544091 -1.10355 -0.166213 1.17087 -0.619603 -0.575429 1.76344 0.078506 -0.48766 0.156862 3.62854 4.62572 5.27787 7.17372 -15.7603 -6.31936 -1.29802 -15.5646 -0.107743 2.94016 0.430087 4.99645 15.0388 -2.08031 1.28093 -7.78869 8.84459 -3.09114 -0.542917 -8.87615 11.0852 -2.29646 3.45292 2.52636 -0.248713 -1.01256 -1.88798 -4.75966 -7.22899 4.57659 3.01478 6.20087 3 -3.58629 23.2799 -1.71694 3.67606 -11.5534 5.34547 -10.16 -11.8301 5.21163 -0.972768 -8.54067 -1.14504 7.03402 -2.17706 -2.26122 -4.48309 -1.90579 2.26286 5.56107 12.8114 13.9898 3.49869 -8.12427 -12.1764 0.504462 9.96563 -6.51014 -17.1143 1.75549 12.5157 8.01053 10.4117 -3.54023 0.529583 -1.14142 -0.207692 1.12783 -0.830705 -0.511897 1.92685 0.519902 -0.636665 0.296554 -0.38575 0.784639 2.07265 1.73399 -0.15983 4.08706 -2.19483 1.23552 -3.19363 -11.4004 -0.747893 -1.27289 4.35585 15.5902 2.76708 6.67659 -7.2754 -3.61294 14.5122 2.83486 1.81449 -2.06025 16.6834 4.67776 -5.81533 27.4285 -8.46385 15.8945 -5.03599 2.43245 2.57796 -7.86217 -1.04682 -0.374419 -7.90244 -5.29988 0.463265 -8.92223 -7.27071 -7.86107 3.0488 -24.6847 6.73041 3.74171 -3.52785 -8.85772 -2.66939 0.735964 10.4589 0.382289 -14.3222 0.192881 1.43677 -29.2165 -10.0431 0.305662 -0.312119 0.214516 -1.57885 -7.36356 21.9723 -2.2684 -4.5222 -3.1265 -25.2491 -3.73305 0.41578 -1.09307 -0.115779 0.990731 -0.867161 -0.546981 2.17663 0.619593 -0.844406 1.01518 -0.503633 -1.27583 -0.269764 6.05758 -0.00985907 -4.14017 -4.99289 2.83115 14.1761 -2.12948 -17.0869 -13.6508 0.96945 5.52439 2.507 -12.5667 5.19982 10.9991 -11.8683 -8.72145 -4.74332 4.63108 -3.90014 4.68905 -2.19176 -4.7691 3.25729 7.92387 0.893252 10.1576 3.6681 -10.9209 -10.5104 3.71106 2.76584 3.53499 -4.07005 -12.9164 3.06177 11.3667 -9.03648 27.0189 -2.71415 -1.60477 -9.02245 -7.78182 -6.53569 6.89275 -4.4241 -0.297423 -11.042 -1.2011 3.42193 -13.6619 -5.05592 -8.20184 3.14788 -6.34705 -5.33695 6.86387 -2.72189 12.4046 -7.78423 -4.9248 -39.7787 18.1622 0.282906 -1.16966 -0.460226 1.07185 -0.791047 -0.484824 2.59883 0.898609 -1.41423 0.584778 -1.33782 10.6274 -14.9338 -11.9147 7.60657 7.81493 -3.93806 5.4349 0.729752 10.6418 8.5702 -0.0322476 19.5373 -10.2203 -10.213 -2.11936 2.95949 -4.70561 -4.92504 10.3553 -7.63993 -8.03112 -1.70343 -25.6599 12.8397 5.26559 3.20285 10.0073 -0.390948 18.9064 21.3507 -6.95457 -6.26507 -0.311198 -1.52218 -3.01368 -1.96556 11.8794 -12.5437 0.276238 12.3037 -3.93945 -8.37848 -4.8275 4.85042 -1.116 15.8895 -8.50647 53.5648 -0.700829 3.26013 20.7536 -6.33652 12.1726 -5.32323 8.18213 11.4312 -7.90009 -7.1226 0.744114 -1.05644 13.5757 -10.3282 6.07353 7.86491 -17.1913 0.225368 -0.985414 -0.384808 1.07014 -1.07497 0.930852 2.356 0.962938 -1.06554 0.502289 0.24475 -1.92043 2.5212 5.94806 -1.77459 0.0961315 1.16383 -0.526757 -10.6546 2.99882 8.78627 8.31964 9.05339 -0.896423 -7.50255 -3.74845 4.6988 4.828 -2.69145 3.97617 -13.0388 8.27852 3.2379 1.28434 -4.09198 9.97872 8.52191 1.94956 -6.36429 -1.74594 -7.19036 -5.88791 -3.66609 -10.0407 -12.9038 7.37995 -2.31269 1.88576 2.1401 -10.6139 9.58489 -9.61824 -2.93069 4.94467 9.69246 -3.19582 -6.80547 4.31035 -1.09841 -10.2019 -2.61479 -16.381 9.88207 3.17486 -0.179221 33.6206 6.74952 2.37791 -12.3407 6.09685 7.91738 2.17079 -5.85467 3.70318 2.21826 -2.93035 0.238123 -0.917471 -0.33362 1.05081 -0.90387 1.60194 2.0028 1.06782 0.911649 -1.35622 -0.759181 -2.65005 3.23542 -1.0217 -0.426245 -5.02168 -1.21509 -1.24137 -7.92463 -10.3333 4.84324 4.60697 0.119186 -1.21355 -4.54702 7.45029 9.19992 4.12367 -25.0871 5.29049 4.23279 -1.55528 -1.70874 11.2254 -2.46714 -2.29938 3.62775 -18.8816 9.47242 -7.34361 -2.74103 2.02589 -3.18049 -7.08282 -41.9127 -0.222866 -8.77104 6.52082 -2.39404 2.43583 -5.55543 5.68687 -4.80159 9.05227 -4.4431 -5.68689 -2.31157 -14.276 0.628271 19.4988 9.98533 -8.02423 1.11936 7.70366 -5.39943 34.5723 -15.2559 -12.9592 0.0748578 5.46524 -5.85439 0.719449 -8.2882 -2.62343 -7.89222 -4.63352 0.177324 -0.982813 -0.524406 0.987088 -0.932104 1.41168 0.860407 0.734424 0.813432 -1.53826 -0.635532 -1.86486 2.77191 3.36037 2.5829 -1.61196 0.2311 -0.206384 -6.42385 -1.79258 0.201441 3.75232 -0.151708 10.4306 -5.89924 8.71998 -13.7562 -5.62215 9.54432 -2.71577 -0.108573 4.07429 -11.2699 -12.629 -24.591 18.8386 3.5867 -12.85 -6.42196 27.8654 -11.1654 -4.56983 -15.4081 1.59753 13.6674 -18.4287 4.59533 10.3348 -0.328143 -13.4404 -2.01145 -1.14545 -4.13701 -4.68642 -2.25791 11.3068 -2.54009 10.0464 18.7653 9.48627 -1.8918 8.68402 -1.7938 1.05902 4.57564 -2.6631 39.3556 -0.70991 6.45511 1.04309 -6.24294 -4.42496 15.8888 -11.0595 9.33235 36.2615 0.367742 -0.834361 -0.305441 1.04868 -0.919178 1.74593 0.320593 0.698255 1.0839 -1.84446 -0.311524 -0.357222 1.3818 3.06736 0.380201 -0.959438 -2.29363 -0.974917 14.8885 -3.03422 -8.61759 -5.16264 -5.13347 9.23378 -1.01153 -2.53349 9.10815 17.4162 3.36162 -2.57415 -2.06057 0.757907 -0.829656 1.98991 6.93683 8.98091 -5.43109 -3.25943 -21.1904 -17.3868 8.93128 -19.7047 -7.73276 2.06266 2.7067 2.44186 -7.13242 0.52992 0.864903 11.424 3.00224 4.33373 -0.839923 -3.11564 -9.49141 -0.433602 21.0576 -9.02166 -19.1612 -2.13575 8.6878 -8.29019 1.84425 -9.0509 -7.76555 -2.95529 -6.50406 1.74891 -10.9882 -10.1225 -9.60889 0.397035 7.91992 5.35046 5.17647 -0.849456 -0.319678 -0.998498 -0.347511 0.931979 -0.73935 1.17168 0.40077 0.934812 1.82907 -1.9013 -1.12444 -0.34841 1.15569 3.17678 0.0687336 -5.85445 -0.855866 0.390329 1.67001 5.58071 -2.81945 10.5164 -8.02728 3.0046 2.84102 5.3027 1.79674 -0.347227 3.53098 10.038 -6.64293 -7.85431 4.92141 24.2525 4.53289 5.86842 -20.5604 -5.20775 15.0047 -14.0786 3.2412 -21.1784 5.78886 8.76508 -4.43911 4.10266 -2.56854 1.58817 3.07276 -1.21542 20.8648 -3.33105 6.13259 -8.33222 4.89732 -6.05925 2.3313 1.89081 -2.20406 7.02485 -6.52298 -5.78219 -16.4544 3.80899 6.43067 27.0156 0.270219 -7.14448 -7.37827 9.4316 -13.6508 5.47266 17.3128 3.15628 -13.5007 -5.7799 -0.189051 -0.859782 0.0113661 0.92992 -0.673824 0.769925 0.186566 0.179013 0.551342 -1.35317 -0.456895 -0.909368 1.55387 2.74511 3.94426 1.66651 -2.23795 2.66641 -0.745915 1.61259 -0.354901 11.7458 9.27956 -19.3344 -3.51134 3.5854 2.32863 11.8385 -9.66889 -8.45652 -9.37862 -2.23816 -0.905417 12.8126 -0.344802 -0.671131 -3.39146 6.22658 -3.04209 -3.88466 3.63655 -3.15529 4.07561 1.28218 -4.77907 -1.50941 10.0346 1.1865 -8.17013 1.94768 -6.04536 -7.10237 -4.9694 -4.50719 -5.14078 -0.492929 -6.20963 10.851 -11.1111 -8.56314 -3.3892 -3.04731 4.91526 13.4047 -4.133 -6.24184 -13.1746 -2.37836 -11.6427 10.5478 0.586845 -6.31847 3.24657 -0.564477 -4.99411 -2.41853 -0.0392016 -1.21123 -0.141466 0.918953 -0.655083 0.404579 1.09599 0.557613 -0.0765005 -1.34133 -1.25597 -1.04122 -0.0775355 2.67465 2.22679 1.57505 -0.10792 -2.07148 -0.00876347 -8.77405 -14.8729 3.56456 -18.1799 -16.8509 4.60767 -0.0830467 4.48442 2.68962 13.773 -2.24437 8.68543 2.30476 3.83528 -11.4518 -11.8994 -9.75706 -2.15815 10.5309 9.13415 -9.83071 -9.69495 -8.91313 -25.4683 -10.045 8.50026 -3.02633 -8.88296 -7.20196 -7.29715 -6.22689 -0.743833 8.67897 -4.70985 3.2541 8.24741 -8.12749 -9.80519 24.9259 12.4079 -5.00569 5.54285 -1.33543 -13.2374 18.65 28.2363 -8.08523 3.8862 -3.64464 6.7272 -2.83367 1.73229 -8.57214 2.44365 6.38546 0.578885 7.66211 -0.097829 -1.06723 0.163267 1.0479 -0.224136 2.15473 1.51917 0.0043782 -8.19789 -10.3064 -0.141743 -31.9893 1.21364 -13.0965 6.13327 -2.04164 -3.16703 -20.8373 -5.6675 0.774411 -1.95865 -10.413 -10.5924 -14.2694 -6.81944 -12.7344 -3.92332 -8.19226 3.01751 5.85272 -0.356345 -3.32056 7.91654 11.0167 -1.19128 1.30817 -8.27516 0.775428 -14.4339 11.5706 -1.62914 13.9297 -14.1815 8.72389 -2.67107 -4.51713 4.85385 -1.57189 8.40156 0.850828 2.90185 14.6974 -0.0714439 -6.13291 6.60784 -5.076 -2.04515 -11.2958 6.04102 7.93262 -13.3431 1.99442 1.75996 -10.2468 -3.71144 28.2563 7.29095 -4.44044 -7.24691 3.03128 4.44919 -29.5483 16.425 7.52196 18.6095 -14.6896 -0.153678 -0.897918 0.145018 0.973437 -0.656837 3.23188 -0.671887 -3.46837 -1.34167 2.92141 -1.26006 -4.90023 -5.57409 28.6346 21.8244 -4.04376 -12.6463 -10.7034 7.11738 6.20571 2.03161 -2.00272 -9.09632 10.3809 0.273422 -8.40701 -37.8603 -5.51328 6.40049 -9.45711 0.450704 -1.47829 5.43086 -6.5511 0.123733 10.0546 -1.33089 8.84477 1.43327 7.18174 -0.736467 9.17479 3.14962 0.201296 -3.86209 7.06587 3.93028 -7.38706 -0.0331455 -1.94128 8.91411 -0.903925 8.27162 1.40383 5.29304 -3.24703 -10.2762 5.6442 13.5297 12.5893 2.53245 0.108212 16.141 -7.58833 -27.3889 23.0732 -0.834008 4.37192 -3.97629 2.75966 4.09321 -5.43864 -10.8467 -7.1485 -1.71407 -2.00032 0.152908 -0.872483 0.305541 1.07158 -0.649178 2.11954 -0.811733 -1.13603 -0.708087 -1.16948 -2.13346 5.45942 8.91876 -4.80228 -1.49822 -7.99761 -0.969057 -13.2354 -21.5685 5.48449 3.21055 2.96287 3.50651 -0.69223 -6.46276 -5.14913 10.7903 8.10622 -16.9538 -8.60374 2.14617 8.46471 -6.1074 -5.74741 -20.0746 6.96364 3.21349 2.31398 9.52358 -11.3253 8.44885 -17.0156 0.819291 -6.35836 7.20877 -10.734 1.217 -7.62538 2.53642 -10.0673 9.49456 12.8227 -2.99097 -5.86258 2.767 -6.10403 6.49579 -7.73541 -3.21759 0.446834 -3.39671 -12.3432 -19.6969 5.24304 -4.88316 -1.69151 1.70114 11.4682 -1.59475 2.80009 4.80862 -7.13597 1.35683 -0.131765 -10.3847 11.8548 -0.105296 -0.906814 0.409484 1.01452 -0.63791 2.4796 -0.300492 -1.1629 -0.753649 -0.833432 -3.87641 -4.57704 0.0771836 -1.68962 3.12078 1.65606 -9.38121 1.15628 9.64088 2.49652 -4.74484 0.202904 -13.167 -13.348 4.28645 -9.72802 -8.89375 -7.81869 -12.0821 0.656236 -6.44084 -4.20508 2.80277 9.70521 -7.69697 -9.65537 5.9018 -2.54606 2.62803 3.00323 -2.59708 -8.3576 -19.1199 -6.75351 7.40515 2.19131 0.748666 -6.23683 -3.62484 -8.85124 -6.50722 4.4963 -2.02075 4.42963 10.4432 -1.32621 3.49162 -9.04109 14.2881 -2.44624 -0.69062 3.83588 11.4067 -4.71413 -1.95781 -0.71065 -6.82452 2.41371 -0.0277132 -4.37423 -9.58172 -3.0845 6.9069 3.34459 -9.02946 -8.2916 -0.105105 -0.951855 0.551699 1.12969 -0.807267 1.8257 -0.503665 -0.386941 -0.523827 -0.64013 -1.04723 -0.744321 -8.27169 -0.844859 4.20017 -14.3027 15.2777 1.46937 2.97752 4.90686 8.67831 -1.80749 25.08 -4.76626 10.4705 -1.46875 -0.124088 19.2737 -9.76301 -2.45189 7.07381 0.354117 -6.67648 2.02919 2.90173 -2.38122 6.53856 10.9526 4.28342 2.25593 0.0572936 10.4534 8.17692 -3.29288 -2.3876 2.85005 -17.1195 0.195164 -5.57483 47.4005 -0.365889 7.91651 6.36083 -0.700986 12.3536 6.7324 27.163 5.3089 10.631 6.32551 2.01291 -3.83049 -1.51197 -14.3739 12.2011 1.78148 -0.096238 15.3565 4.79723 6.65079 -0.715109 -1.40278 8.43556 36.2593 4.25412 11.6253 -0.0713196 -0.813784 0.469358 1.12847 -0.679652 1.70993 -1.33681 -0.509764 0.105641 0.0386671 -0.984107 -4.60226 15.4333 -0.29695 4.58889 2.19009 -2.21923 10.2472 -9.31165 6.59521 9.50655 1.66384 3.1512 -6.09353 -4.56425 -4.30751 -20.9226 -14.337 -1.22635 -7.57793 -1.63995 11.9051 8.66146 -3.4712 -20.0629 5.0732 6.37354 14.635 0.773487 1.17388 8.05119 9.78072 1.41838 -0.42901 -8.88173 -9.82271 -4.1958 -1.36474 -4.35457 0.946414 -19.1968 -5.02316 -3.64947 0.434649 -0.16598 7.22497 8.92254 -13.2873 -1.29571 21.1768 4.26778 4.4298 -6.93834 -6.15833 -12.2955 -5.95901 9.91929 20.6385 5.24256 -4.33655 6.67272 7.54385 -13.012 4.74922 -0.350879 -8.33904 0.13523 -0.799224 0.680571 0.981108 -0.39398 1.84406 -0.704774 -0.66764 -1.39451 -0.0832524 -1.52659 0.901445 -2.47259 -12.9108 2.12996 -0.580272 0.811343 3.17922 0.18818 -6.64004 -8.41793 -5.40594 15.0825 3.92017 -10.1094 2.02345 18.4393 1.20551 -9.64444 10.5614 -4.08614 5.60479 3.37336 -2.3915 -24.5297 -16.5984 2.00774 -2.13134 -4.46087 19.6379 12.0414 -0.307456 -4.29912 -5.93402 5.20549 3.35811 13.5387 6.78402 0.523085 -1.5145 -6.19159 3.25431 13.1244 -5.94433 -1.9973 -1.66123 11.9768 -22.8727 -1.7237 -10.207 10.1574 -0.411744 3.76389 -10.8793 10.0661 -3.72147 3.62955 -2.2634 -24.3401 12.7124 -2.01156 6.63607 1.62609 27.1932 8.78428 19.2313 0.234789 -0.691979 0.931696 0.935462 -0.220295 1.37168 -1.17006 -0.523315 -1.35414 -0.0759101 -1.0995 2.57576 0.099204 -1.95471 0.612505 -1.25824 -3.9186 1.54773 -21.4204 -1.64998 -1.74569 0.534314 2.00347 -3.01755 1.27522 -6.43297 -2.75172 6.34719 -11.5816 10.2556 -5.41302 34.1323 -5.68825 -9.00768 -7.63853 5.65933 1.20703 -8.07543 0.683697 -1.55545 3.55012 -9.96485 10.5738 -0.40309 -2.49854 0.0221628 -8.38068 -12.9236 -14.5205 1.09719 -1.29569 -7.92671 7.00147 26.1839 2.71177 4.45324 4.51597 7.23929 -3.77097 22.1144 -15.5369 7.99847 4.05935 -2.64163 -7.00384 -20.2364 14.4618 -3.88618 -2.28438 3.52781 11.8385 8.71107 8.8586 -10.808 7.49101 5.09275 0.0897644 -0.969798 0.72255 1.10157 -0.634208 1.91294 -1.40037 -0.599571 -1.04439 -0.290019 -1.31173 2.62766 -0.127249 -2.64324 -3.53983 -1.22727 -3.9162 10.2433 12.956 -11.9947 -0.166281 -7.91498 -2.60695 -5.87533 -6.23247 -19.1537 7.65191 -28.7196 7.57411 4.17171 1.22242 5.28698 -14.6478 9.32586 -5.08795 1.98249 3.29528 7.65865 -5.20607 12.6965 8.15233 14.2121 -2.25053 5.17514 -2.70588 2.6729 4.03061 -8.65876 -3.57235 1.11725 5.39193 -22.1029 -10.5762 2.57087 -6.46372 2.04735 9.27694 1.27622 -5.58313 0.524679 6.58138 -3.58622 3.23824 1.78663 -3.27067 -0.0403844 6.71611 2.36195 -0.445081 -13.4341 -14.2369 -0.42556 -9.03925 -15.5711 0.701741 -15.4077 0.0918604 -0.821727 0.821589 1.13661 0.181999 1.67758 -1.43222 -0.615909 -0.261872 -1.00251 -0.861287 3.1091 23.128 -0.456952 -1.81497 0.0546943 -1.85568 -4.87374 5.2488 10.9302 11.4857 -14.4357 11.3732 1.88814 -4.87488 -7.35834 0.974424 3.96133 2.53275 2.57882 -4.31917 -0.124301 4.85479 2.32274 -2.636 -3.23701 -20.155 1.45004 -19.0615 -1.34281 -5.97785 3.21886 0.851449 -4.33488 -6.56495 -19.7362 6.76965 10.1787 0.945022 -9.73085 0.746893 0.301868 -0.676165 2.73833 2.19335 0.178338 -8.07229 -5.73736 17.0264 11.9357 36.1591 -9.70174 -7.27459 -3.30541 -7.87269 5.58702 3.07023 -6.67467 -5.92389 -10.8781 -27.4722 1.65752 -6.86259 -14.1102 -23.0329 -8.00175 0.237976 -0.665565 0.631841 1.14837 -0.650955 1.32969 -1.18513 -0.550499 -1.12122 -0.887298 -1.04347 1.71292 0.352713 -2.02512 1.65076 0.0244438 0.516427 -3.50811 -0.452595 1.68096 -2.1202 -7.85878 -2.47437 -0.917603 4.29745 30.718 1.11135 12.5792 -8.77639 -11.2714 18.3113 -2.03621 -11.1436 -1.84271 7.36748 8.11508 0.33973 5.8644 -2.98563 -6.47013 9.64184 12.9793 2.32859 11.5891 17.1394 7.41179 -4.33646 -10.4488 -1.8864 -4.75281 -11.6113 3.44154 -3.97822 -6.56531 8.87681 3.19234 -13.7217 0.271761 -3.27463 -1.14051 -7.56879 0.084613 -6.6128 9.74036 2.97687 3.48009 1.65816 12.349 -13.2993 -6.56713 -6.84419 -3.67242 -6.64014 -7.98022 1.88738 -3.4561 0.214985 -0.866614 0.984764 1.01535 0.0440313 0.920407 -1.34476 -0.697173 -1.19168 -0.0165327 -0.888902 3.38718 -1.59822 2.84489 -3.53402 2.8597 11.96 -1.61929 -15.878 -5.11374 -10.0217 1.24709 11.0884 -4.15192 2.05846 0.141624 -6.39311 -12.3128 1.64722 -5.23507 5.23943 -5.85352 -7.89636 -5.52201 -0.443281 -10.8093 9.01065 -4.63961 6.41969 12.1113 0.606864 8.67894 -9.21246 1.16292 -7.80233 1.59735 5.25504 -2.32332 11.4035 2.35136 11.0577 -4.64548 -7.35353 11.1141 -2.25899 -5.80256 -5.72665 25.6374 -5.1376 1.70369 13.3841 -8.64945 15.4163 14.2955 3.80386 10.9238 -19.101 6.03687 10.0268 5.81749 5.73357 0.730146 -6.0754 -22.1659 18.4612 8.89098 0.0622297 -0.869317 1.03319 1.01719 0.0289827 1.66085 -1.59942 -0.401249 -1.10599 0.535796 -0.123562 -9.80286 0.10612 -3.40783 6.40259 1.19923 7.69909 4.82175 12.978 21.903 -13.4875 -1.70651 -2.41546 -32.423 2.13876 2.8811 1.70291 9.80985 -8.23497 2.72347 -0.654651 10.9999 3.88158 -3.85114 -1.97512 -7.10824 10.5921 -3.54041 2.76481 -1.23625 -10.1256 -1.2237 5.44866 1.75415 -13.0482 1.32785 10.2529 17.8421 9.4509 17.0183 2.80636 -0.594724 1.19406 -7.60452 4.5094 23.5603 0.0858399 -59.8848 -12.3336 -3.02361 17.5653 -4.32717 4.81367 -8.87963 -26.9907 -14.4617 2.57877 2.11918 0.706241 -1.28429 12.405 5.19272 -7.32887 -1.58405 -8.54727 -0.338443 0.230939 -0.836093 0.971285 0.866941 -0.0147355 1.90005 -1.15409 -0.65391 -0.833505 -0.152083 -0.872698 1.88244 -2.40701 -0.126691 -1.2272 11.1296 -12.9318 1.71565 -1.71417 1.80726 9.11188 -2.61 -4.68049 5.03499 -15.6025 1.21329 -1.82917 1.00766 -14.6822 -13.9217 -12.7229 -20.4056 -2.32656 -2.47074 6.38526 5.09435 -5.34694 1.87371 -19.5365 -9.78837 -4.83915 -29.919 -22.4861 -0.724266 -6.33616 -9.03684 -5.56339 2.35675 -0.705839 29.0246 1.35579 5.27065 -0.776872 -15.3508 0.639661 -27.1425 8.0005 -0.348513 -9.99889 -13.7131 -1.78645 -14.8237 10.244 -6.28624 -6.22821 -0.832653 3.21282 -6.03898 -15.1332 2.3208 0.378885 4.45816 -15.0527 5.73418 12.1357 -2.15254 0.123883 -0.748798 1.05299 0.711017 0.056716 1.5882 -1.30116 -0.62157 -0.860422 -0.638856 -1.39719 1.46076 0.940235 -2.04421 -3.32462 -17.2589 -8.23217 -9.42821 -8.86373 -7.01712 -6.53811 0.929439 -2.60004 -0.0613808 -2.19879 6.66781 -2.33999 4.14829 1.30633 58.033 -6.1333 2.66492 -24.8598 22.6125 -20.9954 0.735022 -6.99603 3.68709 -7.58112 7.69584 28.1524 -6.85187 -10.9267 -13.7791 -0.678637 3.27121 -4.93081 -0.972179 5.88865 21.9019 -9.77187 -3.85078 -4.75487 -1.56985 -8.85094 -4.0258 -5.99574 -4.96336 -23.5916 13.0653 7.25351 -6.64887 -7.87368 -34.3892 2.68432 -7.1076 -11.2584 10.0526 -4.55425 -8.7715 -13.6373 2.02618 -8.3958 4.01018 5.99187 -2.60319 0.180033 -0.884996 0.999081 0.58756 -0.237382 0.00399209 -1.29003 -0.0470228 -0.773831 -0.73151 -1.12808 -1.1454 1.67146 4.63359 -12.0346 -15.8284 6.93157 -5.28475 -0.63407 1.27644 7.23073 1.08769 -6.61038 3.71791 9.12424 -5.30132 13.0382 -6.74763 -0.573013 -1.83693 5.48733 -18.3061 -4.61602 3.38852 10.8741 1.3817 -3.22835 0.199739 6.5623 -0.821075 -2.89026 -33.7953 -15.2179 3.5551 -6.77335 -4.04557 -5.21729 15.4933 5.07948 -0.994293 -4.81322 22.731 -4.25259 -1.91033 -13.6384 3.55492 -11.6007 15.7168 4.20595 -2.40737 3.89521 -25.5093 23.9993 2.50546 3.52224 -6.30894 -5.73027 17.4478 3.83717 5.71105 5.53291 8.75883 0.587931 13.4669 -7.83142 -5.5193 0.231017 -0.857539 1.04571 0.306643 -0.66049 -0.154774 -1.86086 -0.115238 -0.493285 2.54419 -2.62338 -0.616439 -2.90529 1.39107 -1.15432 11.9189 -11.0024 17.5789 1.89571 1.34391 -8.08659 -15.9225 -32.22 -0.641574 -7.94002 -0.531835 1.4845 -1.09409 7.25427 -11.9316 11.896 2.42937 8.34651 -34.7324 9.7449 3.91922 14.9064 -7.04883 -2.28564 8.39239 11.7748 3.98891 16.8002 -11.1015 -2.56773 14.1898 -2.08007 8.72836 10.3696 9.48566 -0.0159213 13.8121 19.8892 -7.85874 -3.29303 3.90025 2.22066 -5.53528 5.01503 -20.3956 6.89408 3.27308 -10.7132 -14.0483 5.21546 11.9126 1.82904 -0.36266 -9.29915 11.1064 -1.05696 0.79779 -23.0476 -8.27088 7.63164 -0.582799 0.231591 -0.886576 0.990362 0.702654 -0.681287 -0.312953 -1.79217 -0.354686 0.111723 -4.4053 3.56171 2.62799 -1.42823 -4.01469 2.54896 -15.6943 -0.645393 2.66863 -2.99241 -3.34107 5.66163 -10.2 -7.32505 -9.32811 -1.08868 -6.69024 -5.16205 -6.47425 0.724478 -2.22124 7.23469 7.5316 12.5674 12.0312 -15.7439 -9.50154 -28.3794 4.75957 1.01203 12.0367 -1.03293 -10.324 -6.99979 -6.3935 3.38782 1.8708 3.11096 -2.29774 -1.31568 -6.58317 8.06075 -11.7852 4.06902 14.0514 2.1251 1.68867 -13.2708 -16.9148 -3.70983 6.82859 -0.506579 -14.9701 14.373 -3.11934 6.73294 1.90892 -2.79727 -6.47419 7.93736 0.74556 -16.3588 -1.17801 0.324435 3.51115 0.934851 -1.46911 0.305167 -0.867939 1.01982 0.4514 0.0365118 0.244544 -0.852326 -0.735674 2.06037 34.7794 3.60266 1.65278 12.5884 -3.11655 1.87534 -15.4558 5.85021 2.72696 5.81212 -1.2871 -4.6372 5.31952 -7.11501 3.97375 1.91257 -0.321915 2.73845 0.120352 -6.79263 6.77878 5.35506 -1.21027 -11.5809 1.39091 7.11998 -0.682579 4.88246 -7.20434 -2.13751 -18.8309 11.2773 -3.08052 -8.10973 -4.02319 -13.0767 -21.1909 2.75887 -8.9854 4.18404 -7.85467 8.04072 -4.07288 4.69628 2.49964 -0.0617327 3.16326 7.11028 6.55094 3.76807 0.872783 2.64353 -0.197801 28.6355 -4.60921 -1.53029 -4.22039 6.24281 10.0744 -3.76236 -18.7872 2.52058 6.65265 -7.40348 3.16612 5.23376 8.85679 0.179163 -0.962699 0.902891 0.713219 0.184139 1.99161 -0.584626 -0.771512 -1.01284 -1.60896 -5.5585 1.96546 -1.03976 1.27131 12.7453 11.6516 -7.00311 -0.977367 -0.461044 -0.258668 5.08476 -18.4319 16.4886 -5.05762 -4.30496 0.0217728 -3.44396 3.33771 -2.18375 6.6054 7.14034 -10.0748 -0.552056 -3.96225 -3.93609 -3.15351 0.648599 -7.19515 11.9848 8.98125 -3.32994 0.501583 -5.97774 -3.19965 -3.61282 -10.9745 0.677983 -2.80946 -18.0439 -5.02715 -7.61137 6.3428 0.595855 -6.14664 -3.84679 4.58383 -7.35155 -8.48147 -2.33459 -19.1363 6.03081 5.61424 -0.19369 22.4904 -9.4018 4.02976 9.83899 1.90333 -4.56786 -0.567729 -1.76801 4.39388 -4.78953 -0.342969 -2.82203 -0.777948 0.158219 -0.825998 0.887712 -0.126101 -0.143271 2.49912 -0.383559 -0.535999 -1.39222 1.94952 -0.697939 1.25508 -2.24896 2.85095 -1.99061 -3.0493 -10.5069 1.08269 -15.7053 -0.910927 5.07674 1.12823 -0.274868 15.9713 4.88286 3.82781 -7.15456 -9.86583 4.484 2.29023 7.59627 -0.689616 7.13918 9.30683 -3.78712 5.51969 -9.17634 -5.80083 -8.23798 7.75211 -10.7667 4.79646 -3.74441 -1.03907 6.13279 4.30222 14.7676 -5.71166 19.9635 0.551592 -4.02953 12.51 -1.17576 -5.35757 9.29885 -0.459961 3.72812 0.0269829 3.22058 -3.81047 0.259248 -0.614459 -16.3368 16.15 7.57942 11.0894 1.8219 -4.2668 7.11423 -4.76756 -4.69749 2.58206 9.09979 6.17011 5.14861 0.971316 0.0809363 -0.794944 1.03225 -0.0359083 -0.309141 1.83945 -0.0770434 -0.0913649 -1.13336 0.916886 0.416421 0.869996 1.64179 12.661 -2.01462 -4.45521 2.89239 -2.42041 4.48562 -8.35477 -4.80948 3.47072 2.55583 3.44178 -1.8367 1.1865 -4.55625 -6.04463 -1.81596 9.7417 20.333 -1.0614 54.0118 -8.24464 -5.39461 9.00163 1.15873 4.49383 -0.152873 -17.8435 -6.30536 -0.474493 -3.08616 -3.94739 1.21118 -0.514308 -1.93796 7.19165 5.35326 -5.13039 16.6232 14.5768 -4.29633 9.92531 -6.54295 -5.022 7.9094 -3.96188 5.91538 -10.3292 6.9518 7.73065 5.46588 -6.71258 -4.96903 1.35588 7.11548 3.61761 -1.73403 5.03133 -10.5019 8.08259 3.72402 -13.3503 6.24011 -9.52016 0.0358398 -0.978053 1.02988 0.108909 -0.0387326 1.48059 0.0583257 -0.438894 -0.579286 0.502148 -0.148876 0.414565 2.89714 0.597778 -2.34385 3.69068 12.1892 1.35684 0.290968 9.87708 6.03267 3.55289 -10.6451 -10.4093 -0.0176726 1.15524 -3.93579 -0.238791 -1.26649 9.91667 11.7126 8.6395 -4.25728 5.01489 8.95092 35.9658 -2.727 10.2742 -1.42812 -5.31049 7.0927 7.83685 -10.0466 -9.41417 -4.33679 5.67262 -9.5165 7.84365 -3.6005 9.67945 -7.01215 2.05104 2.6119 -1.8969 -5.96815 5.0241 6.22431 -1.08875 -4.65982 -8.74884 3.04422 3.84707 -17.8433 -3.87929 2.13742 7.01694 15.3639 -12.5643 0.076136 5.05417 3.05515 3.02998 -2.35146 -7.86087 2.99763 -1.23272 -0.0611231 -0.960209 0.957257 0.161344 0.0966657 1.40259 -1.04333 -0.490849 -0.812274 0.140967 0.491848 1.03515 2.08751 1.97613 0.202423 -0.149529 -0.55153 1.43914 -2.85568 -0.952764 -11.299 -12.9219 -9.22198 11.1426 -0.855757 21.2847 -1.1326 4.09789 5.8365 -0.893743 1.70771 1.60395 1.30185 -4.43388 -1.03833 -3.02256 0.689074 -2.24121 4.14375 3.61647 1.36753 -0.357512 10.7413 -2.19268 -7.93465 8.06496 1.93283 21.1252 -6.46775 9.44233 -4.92767 6.1474 5.21511 8.55264 -2.54127 -2.96486 7.53189 -11.6785 -1.88461 -0.557525 -2.38309 -11.5837 -3.67136 -3.03943 9.1385 14.3937 7.9867 0.00758624 9.30923 0.749699 9.28917 -0.786695 0.922404 -15.1963 -5.89602 -0.551245 0.0670456 -0.908237 0.979197 -0.168034 0.352488 0.483636 -0.372009 -0.85517 -0.922356 -0.784623 0.438242 0.153751 0.971205 1.89957 3.28244 0.736015 0.963369 2.82113 -0.0711029 -0.678712 1.01179 -10.2501 -6.41159 -0.34232 -10.54 2.61515 -5.60524 -6.63713 -5.11612 -4.08165 0.966783 -10.2652 -6.57035 8.86085 -4.34999 3.18435 -12.6193 15.0728 -18.496 14.0182 1.74625 1.85542 9.15933 -4.25014 7.81795 -4.09663 -4.83642 -1.52629 -7.22801 9.86186 -1.08767 -3.6597 -26.9112 2.99919 -3.65637 -1.16759 6.25627 -4.18914 3.37173 -2.02888 25.2519 -9.32881 0.703093 6.53257 -9.09721 2.51892 -18.4778 4.92559 -0.982182 -5.61741 3.25608 -2.50909 -8.83671 -4.58903 18.9089 -3.72782 0.0030727 -0.804456 1.08323 0.261688 0.241842 0.688632 0.121178 -0.834689 -1.18736 -0.907467 -0.56355 2.85109 1.45543 0.881891 2.05586 -1.62332 -0.308964 -0.307053 4.06631 2.4941 -4.97425 0.141063 -2.40454 -16.0689 -6.08566 -0.945444 -1.82723 -4.9709 -4.99761 -7.33414 1.36631 5.04344 -30.0835 24.4271 1.76277 12.0164 -13.2137 -3.03216 -4.2337 3.60406 1.64779 -2.31814 5.88183 -6.31933 -11.4813 3.0715 -1.42698 -4.15715 -22.8509 -4.19296 -6.43951 -3.69179 -20.1564 -13.0683 10.3921 2.60378 14.1269 -14.4201 48.6722 3.38374 3.0337 -5.57252 17.082 -0.664561 -5.46427 -6.75691 -11.1451 19.83 39.485 -4.94788 -6.21174 11.8363 -4.13677 -0.0107257 -3.27897 -5.98547 0.140444 -0.932671 1.0615 -0.160863 0.358122 1.08527 -0.0967517 -0.58834 -1.08093 -0.817522 -0.504974 3.01214 -0.419217 2.20359 -0.0668688 -0.457734 1.43305 10.4703 -9.45919 1.51867 -4.5108 2.89726 3.93966 3.21985 8.86675 12.3787 -0.440076 -0.869312 -7.54444 -3.564 -3.11643 5.05016 0.324951 -2.75904 10.8556 -3.30335 2.36477 4.03169 -4.14069 -1.60159 14.9876 16.3851 2.55362 -3.50757 -3.80763 1.45785 -5.20302 29.1917 -12.296 20.4824 -0.233917 -11.3849 16.4138 3.55092 -2.15301 -2.57799 8.38215 0.895964 0.823648 -5.69495 -5.22656 9.2933 4.63746 -8.5283 13.5249 -2.15499 1.70913 8.71922 1.34763 -2.86099 4.27082 -1.16833 1.41126 0.587627 -1.53191 -0.535129 0.137581 -0.907572 1.10337 -0.28622 -0.107737 2.0006 -0.112072 -0.65922 -0.882264 3.01028 -0.0848037 -1.12478 1.13771 0.669178 -0.282561 -5.42204 21.5536 14.1299 -20.4461 -2.82025 -1.10197 4.1582 -2.71901 -10.0533 -3.8533 -7.50392 -2.57356 20.4257 7.54473 19.0849 11.2355 -16.9461 1.74389 -7.73555 7.82628 13.5955 10.1629 -1.00076 -3.96814 -21.4458 -3.69969 -8.7567 3.52556 -1.60482 -2.70135 0.356499 -9.43317 -3.26638 7.69761 -11.5681 -3.57421 5.76468 -12.6801 -2.50314 6.20443 8.15984 6.35003 -17.7824 5.22996 2.83266 5.97904 -0.24986 3.11411 -12.9767 19.3689 -5.84729 1.52247 7.22194 -10.6245 1.52639 3.04686 1.62773 -7.45748 1.78624 -39.2209 -5.21475 0.123829 -0.669429 0.890972 -0.514067 -0.768072 1.90597 0.108472 -0.801324 -0.851007 2.71013 0.577775 -0.252683 -0.384554 -1.35646 4.06371 1.61944 2.72959 -1.3734 -10.2399 -0.0330394 6.78476 -2.54264 -35.905 2.1541 5.07046 -0.756224 8.89506 5.44299 8.65924 -15.6608 -10.0976 3.3059 2.80269 -6.7813 -0.00466161 -21.9787 -21.4051 -8.47586 16.7035 4.20089 -7.4392 -3.90537 -1.94198 -6.90369 1.89517 3.72431 3.71859 12.0209 12.6029 5.51798 5.50976 5.28102 -23.962 -4.09126 -6.48083 -1.78199 -3.15155 -7.42353 2.64968 -0.622326 -0.579295 9.00652 -12.3234 0.105402 1.70931 6.8121 13.9955 3.38427 -6.69667 -1.68613 -35.8792 6.13102 -15.1447 -14.1932 3.16647 -2.50277 0.11668 -0.845563 0.977643 -0.407017 -0.573803 2.36302 0.0204937 -0.761882 -0.33133 2.55068 0.960725 -1.0532 -5.15329 -1.99368 7.9413 1.56111 5.80244 -6.29259 12.8691 -2.48293 3.31451 -1.0185 4.45384 8.70469 -6.6357 0.354004 5.13121 10.7511 -2.22948 1.1873 -6.83846 12.9422 10.8192 7.28464 -3.66467 2.61349 3.00523 8.58213 -5.10548 10.3609 7.62842 -10.8398 0.756666 10.0039 -9.29588 22.472 2.46176 -21.2678 22.8337 -1.72171 1.39689 1.40603 -2.31922 25.7091 -19.0177 6.79509 0.992327 -11.8131 4.60115 5.21943 -3.8532 3.76673 -0.125345 7.4866 -4.41105 -1.11448 -7.62993 8.18429 -2.92597 -0.765276 -0.222431 -13.4128 -8.13997 11.9432 -1.96583 -33.7347 0.130511 -0.648024 0.97048 -0.58989 -1.36255 3.09902 0.129764 -1.7149 1.26419 1.13636 1.84093 3.10559 -0.623764 -1.4829 1.38203 -8.39077 -1.14049 -0.0911001 -3.08503 -7.24335 6.55038 4.70077 -4.13076 7.68945 -8.07358 6.30434 9.74615 -2.50712 -1.53718 4.69171 -0.319331 -3.15557 -17.6124 5.29923 -6.23578 -1.88595 -11.0671 12.2485 6.61851 3.56547 14.2887 5.65537 5.84467 -7.61324 -7.83018 4.64362 -4.15642 4.73426 -7.79189 10.2626 15.9733 3.41382 8.12805 3.15721 7.64242 -4.83513 -5.66561 10.381 -3.53068 0.113293 8.05776 -2.27691 -17.404 -15.4099 -3.1315 0.153332 -28.3694 -6.21663 4.0591 11.0671 -6.40865 1.7974 8.27966 11.1908 -1.26631 -12.8586 0.050232 -0.72702 0.964732 -0.77599 -1.66494 2.52918 -0.643617 -0.841334 -5.95038 2.41353 -0.920046 1.25979 2.97155 3.38859 -5.15961 -8.44912 30.5807 14.3241 3.18421 4.5024 -0.0486605 10.0027 1.78507 -0.383629 10.5645 0.319028 4.82165 -7.19919 -5.05259 -6.47248 2.73821 -29.4711 -2.97362 5.47604 8.16229 -0.0796394 12.1159 -1.76112 -11.7304 2.21371 -6.1034 6.81747 -16.0699 2.58757 -0.0264294 -20.8137 -22.7887 8.32774 -100.914 0.943946 -0.949351 -1.3347 3.37357 1.42472 -10.357 13.9865 -2.0441 -7.71349 10.348 19.8233 4.91 -1.16148 123.705 33.6677 -1.35091 -12.7333 -2.70167 -2.10287 -6.33816 -0.320151 2.75944 8.72447 -5.719 10.5926 -5.90045 -10.428 -0.153396 -0.740817 0.952234 -0.529007 -1.66987 2.75755 2.48164 1.71793 4.49153 0.993655 -3.0805 2.71245 9.74086 -3.77184 -3.6269 7.0856 -8.78828 -2.86993 0.0963411 -1.92692 6.87954 6.97142 2.79691 -0.794892 -10.0238 -3.40697 8.54292 2.51336 14.3006 12.608 0.301094 -0.630307 1.74135 0.269214 1.62162 -7.56595 5.55703 -1.83393 5.2797 -2.0485 -9.95178 18.7064 -22.0147 -7.01281 -3.10583 -6.98675 7.63087 -8.09247 -7.0637 5.86038 11.17 -0.822965 -0.469751 -1.65052 3.93236 -0.139016 -11.655 -0.637127 5.27216 6.91274 20.4808 7.93924 4.81347 0.954232 -0.7243 15.0423 -9.78351 -5.69204 0.843287 -7.81808 -10.6568 -10.6814 -3.25518 -0.462826 -2.652 -9.73817 0.0225669 -0.825792 0.965368 -0.646726 -1.8466 2.35979 3.01721 -23.5185 5.32278 21.978 -1.79597 2.98698 1.65919 -6.02122 -0.286755 -4.05415 4.08829 -8.07456 2.43775 26.0554 -2.34066 -19.9702 -5.52074 -4.90986 12.7431 11.6852 4.70097 -5.53631 3.99345 -10.1334 0.739524 14.3474 -5.84188 -5.28909 2.88062 7.88805 7.19421 -6.12439 12.0334 5.93871 -6.31238 -7.6389 4.67997 -2.52099 1.32057 -6.31908 -2.29689 33.2269 1.09823 -11.9969 0.467134 4.44788 14.0251 -7.41652 -0.453223 6.3732 7.81107 -1.71193 -0.752981 -3.44161 -4.35449 8.18908 0.673866 -5.72628 0.0137383 0.877075 10.2293 2.83397 7.78741 6.72466 20.5929 -8.22247 2.31288 -18.7118 3.18405 -3.75405 0.0611224 -0.834375 0.916074 -0.714928 -0.958756 0.840365 2.772 3.03441 2.84445 -0.488483 4.48868 -14.1049 13.287 12.0657 -2.19757 7.91378 1.76698 -5.75838 -1.08049 1.79136 2.90573 -0.0468656 -12.8114 -1.47336 -9.23905 -2.36941 -7.39882 0.431833 -0.940074 9.58017 -4.25032 8.89177 -2.2773 -1.60721 1.34515 5.45443 3.32424 -5.82896 5.07619 2.4643 6.1278 -0.348346 1.31409 5.79548 -0.482836 2.66378 -2.08801 -3.96958 11.1216 -10.6239 12.7163 -9.66401 7.19144 2.74332 -21.1089 -0.980371 -14.3137 -0.411173 -3.21897 11.927 -14.4428 -4.06101 -2.11399 -0.147511 5.04504 -6.41218 -12.3009 1.25149 -6.86376 13.806 -3.77859 2.38767 -2.72446 -7.13746 -0.623904 3.30655 0.0573544 -0.771591 0.813969 -0.649467 -1.24225 0.829288 1.02229 0.850603 2.18461 2.61082 22.0787 2.86095 -0.863117 -1.32076 10.0164 17.2175 -0.5744 -0.467056 -1.06043 -3.32786 -3.00942 -6.74998 -15.6282 -12.6767 4.01801 6.24541 -3.40833 14.4762 4.34347 4.98926 1.59535 -15.4496 24.3652 -5.31898 -5.23342 14.5137 13.3482 -4.85089 -2.25424 6.58721 -45.5837 2.49995 -0.564547 -3.27767 -25.2863 -11.2738 5.20416 -9.89442 3.18879 7.00672 0.873577 -0.325811 -17.5312 -7.26513 -6.60997 10.602 3.47308 -34.3396 0.60551 -1.0372 11.5443 -7.52717 13.8326 -11.4165 1.61008 -4.67093 -6.82282 -3.30253 2.95293 -5.61349 -5.36496 -4.28636 -6.09156 4.61883 -7.23897 -6.8971 0.0788352 -0.848014 0.812741 -0.807839 -1.35466 0.338477 1.36383 0.322958 2.39875 -14.9153 -2.74185 -3.53903 1.17213 -3.26042 -5.25168 -7.64341 5.53396 2.05354 3.52416 -10.215 3.03812 0.524179 10.1925 2.77289 2.1202 -3.80667 -6.86088 -6.79245 -6.93388 -4.03213 -11.8871 -8.04121 12.3005 7.48165 -3.90853 -22.4715 -3.75565 -1.60551 12.685 -5.31992 1.7734 -8.82419 -3.44972 0.606835 -1.48954 -11.5493 9.05883 5.34099 -2.2921 10.4929 4.1827 2.97146 -18.5055 0.769437 -7.46811 -6.41285 13.5347 8.62465 -3.49105 -2.16711 0.00846409 -2.9866 -6.9878 0.124241 10.0038 -8.28172 -11.4147 1.80723 -5.172 13.1208 6.20735 -20.2466 -6.42635 -0.106747 -5.11734 -7.75801 0.21093 -0.855925 0.804571 -0.841848 -1.44562 -0.802208 1.99108 1.62067 3.08138 -5.50593 -1.92515 -1.57569 -5.53089 12.3411 -4.77707 -12.3062 -13.3064 -2.97758 -5.92337 -1.92448 1.13143 -4.68791 7.71191 -2.47257 -1.71953 -2.41439 9.42705 0.878562 -9.03419 0.32829 -0.767101 -7.48923 -2.60759 8.953 3.04245 -5.78608 0.671085 -12.7034 11.3502 -3.40409 7.83238 -12.5046 6.62972 -0.0735169 8.52799 -5.21733 2.89312 -12.5471 8.28031 -5.15579 0.615181 6.43698 5.7935 -6.33065 7.02071 -6.69828 6.75985 2.81882 2.04741 -2.13541 13.4141 5.18596 0.705212 -2.77079 -2.84893 -0.673434 4.66394 -0.303373 -0.97824 1.81332 -2.00021 -0.070383 4.49458 -7.69714 -3.66892 -11.7166 0.108048 -0.884948 0.783092 -0.31956 -1.68106 -1.45608 1.39161 2.03409 12.4525 -0.705452 2.90173 -3.41547 -20.2796 1.02568 0.883435 -5.99134 -5.03259 -1.95928 -0.229698 -9.85197 7.57813 3.97016 1.45207 -2.42428 8.11164 0.931155 1.3363 -8.0271 6.2201 9.80142 -13.88 7.60481 5.25812 -1.52093 -10.8307 -3.68493 -2.6891 3.68875 6.17538 -2.13623 -2.84917 -1.7962 7.99433 -4.52675 -1.97325 -4.42433 6.28771 -1.53122 -1.89436 -1.9266 -4.07971 -3.4138 2.67656 1.19345 15.8162 5.98852 -3.13455 -18.2384 4.9026 -3.25345 -14.5138 6.91099 9.82577 2.95271 -7.26294 10.0273 -5.19584 -2.73481 11.4069 6.82766 -16.5456 5.78898 8.69814 -7.33181 -12.5239 11.7195 0.323334 -0.895208 0.805791 -0.73067 -1.58695 -2.07172 -1.78341 3.15374 3.18744 -6.94805 -4.32873 1.49039 15.5574 -2.91279 -6.17414 6.50691 7.81102 0.761546 -8.61019 4.44771 -2.08643 9.22297 -8.78949 -6.98368 -17.7527 -0.842685 14.0439 0.623236 -0.0383244 21.0316 -9.64033 8.89444 6.24888 5.35897 3.69567 11.6866 -9.16523 -4.08034 -17.9289 -13.6088 -7.36142 10.8878 -2.15034 1.05517 -1.60708 3.62126 8.50062 -4.34944 -1.75918 9.5598 13.4701 1.41889 9.63188 -7.99192 5.65218 14.9559 -0.849849 3.80329 8.20531 14.7155 -4.72596 0.963088 1.91194 2.12417 -5.99223 16.3 20.2189 3.61306 -4.80419 -1.55337 -2.43616 1.7557 4.77594 -0.207262 3.88216 2.5204 0.266774 -0.831272 0.759228 -0.54348 -1.93413 -1.52591 -0.517435 6.74532 3.34081 2.39974 23.2069 -12.2866 -1.2167 4.28141 -8.44282 -1.15285 7.09217 5.23301 4.22028 -2.77656 5.68141 16.195 -3.62428 15.9475 -0.506756 2.29188 -22.553 -0.883997 -4.05284 4.90846 3.30101 -7.60714 10.2236 -1.5562 -6.34034 6.36012 2.98399 8.66105 -6.43094 1.1777 -23.0398 1.41767 -8.60639 -13.0867 19.0495 -2.99227 -0.306107 6.76346 -11.4758 3.52812 -3.11975 -6.05225 -7.54147 -4.56991 1.81192 3.75564 -9.39621 -4.35046 5.52304 -8.52049 4.52739 1.31505 -1.52117 9.84443 1.62827 1.84252 -2.47881 4.25958 2.84945 -4.24806 -5.36486 0.827728 1.08069 -12.0001 10.9288 -0.587713 0.223661 -0.809202 0.837448 -0.555579 -0.76526 -1.0962 3.64039 0.600741 0.789745 2.92398 2.87016 0.434797 -3.9282 28.4693 3.15755 -2.70325 19.1689 10.7541 12.2653 -0.505777 -8.78831 -7.41498 12.0465 -1.30639 -5.58097 -6.45017 1.28392 4.14537 4.84614 0.843125 -14.7768 12.9859 -2.65327 2.5699 -5.05293 -4.69551 4.27001 17.3363 -0.329578 -3.98285 -6.2556 4.86524 0.417417 -3.21237 0.0447772 -0.847467 2.2783 5.37816 1.0477 -2.80693 -12.7608 8.23936 -0.232168 8.59136 7.39558 -3.7526 -5.52877 2.86811 3.29981 -1.62087 0.266084 -5.34612 -13.714 7.82909 6.04953 -2.33346 1.98432 0.28664 3.38808 1.54918 -0.705246 -15.2326 -4.35194 8.63039 13.6461 -1.49138 0.13524 -0.650721 0.970374 -0.588339 -0.493198 -0.715068 2.26547 0.381036 -0.0360431 0.668669 1.68145 -0.0422993 -21.2361 4.7331 1.83293 -1.51705 -2.68289 -1.68408 -0.230383 7.74872 -1.29616 0.163779 7.20821 0.55568 -3.56244 4.15464 5.23907 -9.41284 -3.04352 -2.02552 12.7706 -12.6842 -8.11001 9.94915 -5.69425 -2.41478 -2.13636 2.81324 -7.78195 -0.0603086 6.83686 8.17754 5.09008 1.14672 3.08329 -25.3016 4.53794 -6.671 -5.58861 -3.49316 -9.51072 -1.57682 -0.0328844 -14.2668 9.38459 13.4531 -3.86652 -5.54004 -11.2378 3.30415 -3.84433 5.24261 2.02253 1.9862 14.5372 3.02581 16.4534 -6.3356 -0.272891 1.0704 -1.29745 7.81657 4.45126 -8.42622 -15.6471 -10.5595 0.209552 -0.836273 1.00866 -0.630081 -0.281059 -0.852808 3.63114 -2.37627 -1.89455 1.77707 3.51554 -1.09802 0.502644 7.67578 9.58139 2.83615 -4.69205 2.24492 9.43756 -5.37826 11.0513 -0.990992 3.89293 -2.08633 -0.717249 -6.15718 -4.1315 5.48654 -2.13157 0.167602 -2.44269 -0.309359 17.7426 -1.66583 0.0466454 -12.4534 -0.67365 -0.612996 -9.41722 8.35036 0.146367 2.05292 -46.83 0.245346 -5.62624 4.92909 0.632028 -6.39599 -0.829321 11.0656 -4.02289 8.77457 2.24317 22.2431 2.38331 6.67408 -1.00779 -11.143 8.05864 5.67724 3.54593 -7.94779 -6.32431 1.89547 0.307486 -16.6088 -17.1472 5.23385 16.37 2.21655 -8.10589 2.10637 -6.2454 5.94544 6.82726 6.70958 0.34711 -0.82634 0.910022 -0.633602 -0.705922 -0.371138 -0.848443 -0.281991 -1.65713 0.751949 2.79913 -1.3045 8.36862 0.677551 -38.1752 16.2652 2.31757 -31.2935 1.93719 12.3936 -5.65461 6.71697 -6.01472 0.161521 15.0227 -11.8572 3.0058 -8.10279 -25.6687 -1.86793 7.42121 1.83706 10.3708 2.29713 1.52188 6.22489 15.207 -0.995729 1.00847 6.01946 9.60562 -5.30201 -3.09653 11.4411 7.08217 3.49145 0.163891 -3.03995 -10.2794 3.34303 -5.67756 -1.08721 -4.44186 -11.7113 7.69506 1.73763 4.07047 6.7789 0.451961 6.67497 10.9472 -12.9277 8.06314 3.83469 4.98511 2.03633 8.16454 7.36805 22.0907 1.92443 12.7066 1.37205 -8.07492 15.2688 0.390124 6.98916 0.218075 -0.858819 0.853682 -0.338939 -1.63768 0.361651 -2.42131 0.122649 -1.45454 0.507908 2.87234 -0.219508 -2.43054 -6.463 -1.82462 8.12965 15.9728 -1.52613 12.6963 11.147 14.4902 -6.57413 -8.23191 5.98053 6.76481 9.05665 1.46797 9.01648 -10.3831 -0.421421 3.03263 -7.785 -4.45615 5.85485 8.19164 -2.10601 -8.65437 -8.20463 -2.21291 11.6915 3.26064 -6.14736 2.9366 1.11244 4.79297 0.391586 -9.34162 -12.8824 0.389416 -9.95112 -8.87634 -8.45252 9.59259 4.19485 6.64852 -2.41815 -11.4715 -11.2531 -0.0300165 2.98437 4.73598 -0.27454 3.49651 2.52805 2.81246 -3.19862 4.33949 6.83994 -2.36562 2.78069 -18.8954 -0.757715 -0.843602 -2.9518 10.6208 -1.22204 0.286825 -0.902506 0.982129 -0.249965 -1.99174 1.86091 -2.45909 1.69722 0.216142 10.1828 -1.85861 0.915295 -1.31871 21.3505 10.8224 -1.71178 2.12665 -13.2458 19.1897 -6.29985 3.11671 -1.66837 -1.32561 -21.0986 7.92379 -0.358971 -41.8893 9.57273 -12.0132 -4.13482 10.6905 -11.391 1.51011 -0.775406 -2.81938 17.608 -3.57096 -3.85221 -6.369 -1.55089 -0.367023 32.7688 -22.7085 -9.24062 3.59621 1.59309 -32.2096 -4.75788 4.70395 2.70841 8.16922 3.30591 -0.257793 7.27334 1.4814 -7.8257 2.59351 -0.344265 -3.70133 15.5496 11.8588 -4.75125 3.92486 -1.53113 -3.3611 5.20452 -7.09994 -7.6068 -3.6509 25.7586 8.67512 1.9339 -5.69235 -0.483382 9.80665 -1.40388 0.326479 -0.946902 0.994449 -0.169749 -1.16406 2.73055 -1.20701 -3.52116 3.03291 -0.735035 5.26544 -7.83394 19.3885 2.29933 -0.000486608 -0.413916 -7.36537 -8.03482 0.218779 -2.03811 5.0663 0.836882 3.40835 4.95016 -3.57706 0.45146 4.63961 -18.6278 2.51053 4.82157 -6.12524 8.02942 9.19192 3.34785 3.3779 8.20101 1.37435 3.45067 -12.9335 -2.55072 17.454 -4.11528 6.24697 0.602335 3.84596 7.88509 -0.877979 1.47063 -11.0068 7.9236 -0.963473 15.0776 -1.95049 -4.77025 19.4204 4.24338 0.268809 -4.19816 2.53335 8.26968 5.35926 -3.56287 2.63324 -2.41835 -12.762 0.96465 17.5746 -3.78287 -8.7165 -6.8222 7.86216 27.7005 -1.86748 0.753916 1.64966 1.83614 0.269564 -0.87402 1.05209 -0.014333 0.0782577 2.86528 1.10013 -3.32961 -2.81184 -6.62096 1.70739 12.8306 -3.61621 11.1986 1.91466 9.96267 -4.20715 -3.94117 0.912438 8.89967 13.3868 16.0066 6.44813 19.8161 -5.12701 14.0255 -15.2982 1.49795 -17.0361 -7.81836 -9.4488 -2.02966 3.13205 -0.449836 14.2614 10.7355 -23.38 -3.85367 26.2052 9.48327 -6.63378 -13.105 -18.6919 -1.84389 0.759552 0.566246 10.9238 4.59669 4.25976 -5.16946 -3.93261 -25.6153 2.22357 -7.40407 -0.366036 -14.4815 9.02403 6.31225 9.7814 -1.87831 5.55359 1.38157 22.2085 0.584467 -3.35422 8.78208 0.753776 1.12771 6.66369 3.95395 -3.09523 -6.40336 -4.42808 -10.3175 -2.84897 -7.70407 0.338146 -0.779064 1.035 -0.669919 1.17893 2.86465 -3.37329 -2.22749 35.2914 0.937816 15.5901 -6.12378 3.67835 -1.54544 -2.77137 4.82424 9.35688 -5.84761 -6.19816 5.37029 -3.39959 1.50582 -4.36322 2.87978 0.105262 7.53062 2.48631 -4.11081 2.67442 2.55258 8.26007 -2.18235 -12.5474 2.35934 18.9258 -1.81564 2.50468 6.02836 3.08866 -2.17513 -0.0763969 1.87752 -0.381195 -5.12024 -10.9657 -5.74321 10.8442 -0.249261 -2.57723 -10.8945 -0.858888 2.18567 0.48142 2.302 7.74001 -2.04122 6.44942 -3.61472 0.25043 -4.42406 -13.1329 9.87646 8.46149 -30.5669 -3.92185 -9.83139 -2.10919 2.32157 7.34518 11.4658 1.2655 2.81725 7.13426 -5.7049 0.688185 -10.1265 0.397953 -0.85752 1.07368 -0.189152 0.570332 2.43617 -1.47829 2.46992 -7.8662 -0.605579 3.81598 4.48959 2.71174 6.39858 12.3341 10.7336 3.15606 -2.44969 -19.4757 -9.13342 -0.0590775 -3.81189 -10.5554 -10.3938 -7.44989 11.3538 -11.332 1.69118 -11.4547 7.69502 -3.79541 0.454438 -16.4496 -9.97827 -4.67044 -8.0292 27.2545 1.63873 -7.52547 -20.6291 -1.59395 3.69096 1.43017 -3.60912 21.9055 4.12723 -16.7664 11.3178 -1.37406 2.08542 -1.50415 -6.42806 3.58953 -48.7013 7.19142 -2.12256 -3.32508 -0.768283 -13.8194 -10.9573 -15.6889 3.11505 2.54517 -1.37698 -4.26412 1.35807 3.15161 2.81701 2.15872 2.94066 -1.13527 -11.1238 -8.76015 5.31565 -4.84622 5.47231 0.357678 -0.802309 0.959396 -0.734342 1.22349 3.26888 -0.838879 -2.44662 -10.9027 0.744582 -0.41035 -7.91678 5.58794 -3.09689 -10.3288 8.14327 3.28593 15.6223 -3.54317 8.83275 -12.7657 -11.5805 2.73685 3.44905 2.5676 -1.93754 -2.7829 0.400398 -3.11362 6.13349 -0.154166 22.8786 8.23424 -1.4498 -1.61398 -11.8139 -5.11135 15.2448 6.03779 -7.27615 7.23235 11.474 0.265072 -3.05857 0.185439 -1.64607 1.51936 0.85009 -0.511856 10.9619 5.89471 -9.60932 5.36618 0.701962 11.8248 9.88547 3.24045 -0.878918 -7.1359 -6.9376 6.55718 6.06553 19.1104 -4.37278 -10.5645 -1.70777 16.4255 7.41399 -3.76937 -14.3155 1.15801 -3.73791 0.423998 6.98122 5.82304 -8.79941 0.227479 -0.865548 0.917685 -0.000940978 1.85441 2.1106 -0.716727 -0.258282 14.7024 -3.64231 9.68987 5.71747 0.0467812 1.71364 -16.0316 4.63333 -24.0944 -10.9541 -12.313 -2.58047 2.96659 9.50708 -2.67714 6.96055 -12.1501 2.20181 -14.3517 -0.99165 11.1379 -5.68191 2.60123 -6.58862 3.91904 1.65362 3.13489 -1.52798 16.877 -9.08985 -5.76786 0.587223 1.92772 -0.167303 -4.36342 -3.59381 -12.737 7.06186 1.73994 -8.89438 -9.02507 -3.26361 -1.46414 -0.938423 -5.98747 5.95518 -7.51369 2.07255 -1.13615 3.88363 4.59372 12.5354 54.3855 -5.6119 -3.16573 -7.3574 0.830933 -5.33015 6.12336 1.02294 10.3731 39.9186 0.7895 -28.2363 0.826396 -3.60274 -6.15628 -2.9627 0.108789 -0.763632 0.90943 -0.274557 2.7142 1.15985 -1.18661 0.513574 0.287189 9.26512 -2.47963 -1.29597 -4.42001 -2.23161 -2.73109 -4.85861 -18.9182 1.15864 -2.24166 -11.002 7.31544 -2.56929 3.16168 -7.17481 -24.4169 -1.354 -0.850318 1.02784 -5.07761 -2.86835 -2.55578 27.9847 0.512791 -1.40476 4.65614 1.59105 2.89022 -5.40447 -2.3588 10.6693 -12.2926 17.572 1.84718 17.543 -0.665865 8.66175 -4.02928 -1.22514 4.37113 -5.71128 3.96027 -9.16071 -6.21826 -2.5373 -16.4398 0.126284 -6.07466 0.996699 0.952085 2.93272 -8.12933 0.606595 5.34609 -3.05703 -7.52725 9.83487 8.25438 -6.37384 -10.9615 6.80632 -8.36669 4.65364 -2.11579 3.64381 -0.291429 9.01053 0.124149 -0.757444 1.05153 -0.158184 2.77769 0.989649 -1.69141 0.0450722 2.49729 -1.32754 8.88142 -4.51743 -4.24631 4.39257 -9.27775 15.9823 -1.21462 -7.16461 -5.53742 -5.8241 -2.81852 -13.6211 9.12002 15.1782 3.64667 7.57731 -6.14154 -20.4781 8.17497 9.2526 -0.903367 -11.5782 3.91595 -0.289162 -0.255201 13.4257 9.8163 -11.0853 1.64562 -1.65446 -25.9077 5.33094 -2.69763 -10.7991 -5.12775 4.5291 2.23549 0.525392 -1.96479 -3.58077 0.0894798 -9.9923 -3.91 -0.446983 -1.58708 -5.12541 -25.9827 -7.52876 12.1039 -2.86407 -0.0544024 -1.26739 -11.9716 2.32527 -10.4116 -0.386184 9.99723 8.7365 -1.36018 -8.63193 -6.77272 -0.94476 -2.48461 2.52639 12.5232 7.06688 -0.118053 -0.807633 0.946067 0.102621 1.85003 0.587859 -1.58825 -0.878481 0.779787 -0.443453 0.640245 0.705923 7.73384 -2.19307 -1.0271 1.06175 7.12417 3.36977 0.741507 34.0135 4.79244 -1.45709 8.33372 3.14524 1.44244 -2.77688 15.6326 3.48894 -0.119214 -5.6039 -5.13912 -1.24082 4.70698 11.8898 1.6674 -9.08535 -3.66973 -8.79334 -1.48852 -3.41747 -3.33299 -7.45729 4.42446 -4.13725 11.655 -4.63998 -19.7298 -1.84446 2.61799 7.71894 2.10343 -1.46668 5.53637 5.49078 -5.06053 1.6918 -8.19042 -2.72391 1.46762 3.41722 -2.31229 -4.43308 4.20292 15.7223 -0.805673 -10.907 9.167 -4.03969 2.80029 -8.63565 2.39398 -3.65925 -9.97631 -31.057 13.3703 3.0287 0.179516 -0.773517 0.99652 0.0806593 1.95949 0.664445 -1.36335 -1.23558 -0.518395 -0.642639 -0.149539 -0.921125 1.85973 0.922875 -0.228676 -0.410611 1.50504 3.90554 -2.66096 -2.41401 2.80569 -1.27977 -10.8369 -5.88438 12.3585 4.56805 7.73471 0.823778 6.60101 -3.46179 1.51681 -4.89767 -4.87111 -8.58225 1.05919 -14.1612 -3.81547 -1.07739 6.33069 1.05191 -4.47086 2.31297 8.81666 -7.06217 -0.890961 7.85358 9.34605 2.8268 -5.26719 3.90447 -21.9251 16.9278 -5.36946 9.69036 -4.15757 -16.2566 -1.22152 1.20852 -4.82405 -0.0668543 12.9075 -6.26106 23.3457 -2.24413 -3.05486 6.7674 0.828446 -4.73543 -2.37787 1.81141 6.52208 -3.99764 3.9651 2.66513 8.30696 -6.34645 0.259747 -0.784536 1.07064 0.181449 2.36746 0.463376 -1.47918 -0.579612 -1.149 -1.12366 0.0950865 -0.0930939 2.12235 -7.505 -1.76792 -0.992787 3.30523 2.69076 2.89788 2.71023 -3.24932 -1.54395 -0.72838 5.33517 8.39642 -8.17007 -1.24837 3.39378 24.2765 -8.09206 -0.812006 15.0915 3.68335 25.8425 -1.09883 -0.257103 1.62854 3.9293 -19.0487 -4.78996 41.2449 -4.52394 -13.3095 -4.61463 17.4772 4.83155 4.89165 -7.55877 -0.0208322 3.24757 5.85213 6.1523 -1.62967 40.5154 -5.65557 2.59048 2.00467 1.26798 -3.03581 2.54268 3.11359 7.86048 -17.7645 5.002 11.2501 5.01551 5.122 -3.29717 1.4392 1.19445 -4.85226 15.09 1.34061 10.5655 -1.27545 -1.52978 0.104864 -0.904812 1.06976 0.122766 1.75808 0.258047 -0.949248 0.257914 -0.871228 -0.570731 -0.642751 0.811125 1.64926 2.52351 -1.3184 -1.51835 -3.1473 -0.0754986 1.28292 3.50693 -18.183 -3.44084 3.24026 -8.04801 7.7533 -13.898 0.0226572 10.7712 8.45629 17.6686 1.81499 14.8569 2.9671 20.5778 7.87909 -16.1805 -10.6215 -6.78379 0.136052 8.32459 1.24396 -11.8926 -0.658036 15.8802 6.24645 -4.94397 1.29297 -5.04598 20.708 0.91244 6.82874 2.30618 10.1865 -4.24248 -8.59979 2.21249 -1.61445 -11.4524 -2.35281 -3.77981 11.9962 -0.557877 8.52565 12.5017 -2.66675 -0.35746 -9.62868 -0.478266 -4.50059 0.921879 -3.67086 -18.3834 -2.05669 1.69 -3.19724 -7.33384 0.206653 -0.844038 0.950808 -0.132328 0.709833 0.402818 -1.30062 1.19664 -0.728957 0.0503515 0.226292 2.51966 -1.11686 4.05624 -1.10258 1.73672 -4.06006 0.113559 1.48096 -5.38653 0.655208 -6.52198 -0.523842 -0.698226 5.02708 0.574925 -0.655234 4.68178 8.92025 -8.57563 -1.27104 -0.771872 3.31619 14.7727 8.7043 -29.2231 18.8917 5.92136 0.992959 9.4966 11.8026 -6.27444 -4.47636 8.2131 1.8409 4.64809 -4.36976 -2.66954 0.432501 0.312907 8.11636 1.90845 0.761989 9.60095 19.4425 8.14653 -10.4525 5.46559 0.427191 12.2022 6.38001 -8.12084 -0.926196 3.58511 -3.85647 -2.81467 -30.8877 -5.03959 -4.00417 -13.9962 5.67756 -7.86442 14.1101 0.293162 1.83937 -4.01654 0.234297 -0.897907 1.0635 -0.283207 1.28948 0.420688 -0.849573 3.01097 -0.776713 -0.160201 -1.62848 0.346285 -0.283566 -1.62717 -1.43348 3.42838 0.798883 -1.59335 -2.45208 0.17351 3.76403 10.4631 -12.9602 8.07482 13.0826 6.50102 0.544873 -7.32683 3.46962 -11.4433 13.2577 -11.9909 3.09035 -29.2439 15.1049 8.29711 0.542193 -7.23702 -0.0129414 -1.94577 -8.02474 6.7855 -4.36768 -0.914377 -16.3255 -4.66373 1.58953 10.8611 10.0912 17.1102 0.678218 1.84281 7.5427 4.51709 3.93867 -9.84401 -3.3838 -1.35135 -4.44462 -0.707002 -9.94014 -1.58321 -0.262074 1.17918 -8.49544 3.30912 11.4966 8.24943 3.01346 2.935 -21.0535 -8.41572 5.55262 -10.877 1.35642 3.78122 0.222737 -0.820039 1.07291 0.030793 1.54117 0.223917 -0.447862 3.13162 -1.68459 -0.666802 -2.95432 -7.30397 -5.82034 5.43495 4.4454 -1.3205 -1.33487 0.224528 -0.650951 6.35708 9.69222 10.3756 -12.1456 2.61917 9.06058 -4.83714 -0.331555 -0.920221 -1.2862 2.96013 -11.8274 5.63805 14.6379 3.02187 -0.479207 -2.21478 5.31756 -3.22661 -3.17282 -5.75109 4.84484 33.2082 0.888297 -6.84315 3.55452 10.9549 5.77149 5.05868 6.88906 -2.88989 1.67477 -0.716818 2.23218 11.467 -8.18335 -0.181792 2.78952 0.875124 0.461552 0.321018 -7.06546 5.84162 -4.099 -1.69511 1.93706 -23.5283 -3.25095 12.1111 -3.32662 -7.45951 1.40843 10.4731 -18.5057 -7.54401 25.3744 5.45696 0.289497 -0.780849 1.08 0.306679 1.09407 0.589592 -1.6253 3.13639 -1.40597 -4.35217 22.4657 3.33209 -8.0925 -57.141 3.27666 -1.2784 3.29333 3.69699 -11.7016 2.68762 2.43636 0.0646016 6.80901 14.5808 -1.19477 7.94938 -2.46958 -6.88268 -2.05378 7.78018 3.06127 9.53267 -29.6814 14.8581 7.24426 2.81187 0.32779 5.77245 8.67227 9.39833 -0.064047 1.1395 0.948617 -4.05788 -13.304 10.0609 7.40385 -5.93484 -1.58773 2.79692 32.5717 -1.04981 -8.92772 -1.50996 0.170821 2.03232 -6.75949 -2.05124 10.225 -2.59433 -6.05653 -5.19752 -3.32749 2.39864 0.254454 2.8954 -10.531 -11.1413 -0.475571 3.64781 -2.10561 5.56001 3.99429 -4.85438 -10.2424 2.14504 0.142185 -0.750073 0.963544 -0.0642427 1.04686 0.159568 -1.17469 2.42529 -1.25156 7.97076 -2.39158 0.948136 -1.45841 -24.737 -1.92129 -2.19111 -11.4115 -4.3003 11.8228 -4.07638 -6.53248 0.201468 2.75807 -1.77022 -1.46243 -0.834658 -4.26002 -21.7887 -0.392426 -5.21456 -3.68075 4.04268 -8.43678 -7.36128 4.91127 -2.73753 5.71325 6.52 5.34042 1.50921 -11.3004 2.71952 10.6047 -1.50913 3.2373 -2.69201 40.1901 -3.83251 7.29903 -3.33584 -11.9693 -4.98197 -3.68929 0.196982 1.00943 8.70555 2.32435 9.94615 9.07021 1.92037 8.21147 -1.55893 -9.78828 -1.12509 1.57417 0.322982 9.97486 20.1483 -7.41169 3.117 6.73924 3.51885 1.47782 0.378989 -8.01441 -3.75305 0.0990039 -0.84843 0.934436 0.153791 0.942717 -0.393455 -0.668731 1.97364 -1.07835 -12.1479 2.19758 -0.691686 -2.90096 -3.99597 9.67723 2.93948 -1.59261 -4.84482 7.60286 5.26444 6.02881 -12.4488 5.56653 24.9032 -9.51377 6.12361 2.1112 -10.7904 5.92427 5.93294 0.300379 -29.0972 -4.98544 1.97524 -7.40283 3.29455 -1.12872 -6.42187 4.51735 -5.8161 -10.5713 -13.2795 11.7443 11.8169 3.13849 -1.89872 -8.69878 12.8203 1.28808 0.541346 -1.55456 -16.913 -7.64275 1.62971 5.04517 12.5029 -10.3002 -4.1518 -6.45498 1.59953 3.88585 20.5466 10.7081 -3.01127 -8.34967 11.1584 -3.97261 4.16217 3.32975 -22.9528 2.12295 9.96324 2.55833 -2.20381 -20.8939 18.7582 -0.0800843 -0.715288 0.922251 -0.0512973 0.664401 -0.142901 -0.992066 1.7228 -0.133204 -0.330923 0.641206 -1.02901 -1.69862 -1.15011 0.141775 -4.43377 -3.66749 2.12213 4.27405 -1.44948 -3.03052 0.062024 2.56548 -3.58493 8.77893 -7.60196 7.654 1.16488 9.03043 -16.606 -9.55477 -12.7523 -3.09259 16.4013 -0.889382 -5.68076 -0.380935 -11.5968 6.76335 -8.61931 -7.74989 -6.4933 -1.87033 -5.72169 -8.96186 11.9187 -1.52265 2.55965 4.43801 2.77944 -2.14618 -2.96976 -7.17332 -5.51366 0.446608 -2.94817 -0.0441159 16.4601 47.5456 10.7517 -2.17028 0.518585 -13.1429 4.54503 -21.8682 -18.6414 -3.16884 -1.20766 -7.79168 -8.45437 -0.409689 1.83893 -4.06457 -6.70908 4.47464 -5.43275 0.000189714 -0.838661 0.950347 0.260992 0.806579 -0.262904 -0.568391 0.655029 0.422855 -0.689666 0.34879 -0.684525 -1.77678 1.12115 -1.2834 1.38085 0.961627 3.40453 2.01247 0.173584 0.417598 1.60736 -6.87316 -0.297587 7.67223 7.04433 -1.24016 4.75703 -9.57114 2.68168 -2.93993 3.24014 -0.336566 6.514 -11.4819 4.92306 -1.39251 -4.77666 -6.59643 0.206742 7.11406 4.85328 -3.87161 5.86925 -7.08344 -9.34672 8.99937 -9.23787 2.41394 -15.6279 -3.73875 -3.63491 6.39688 -5.69073 9.03381 -1.78136 8.9779 -9.33193 5.21837 -13.0312 4.32047 -2.0605 10.6589 -2.71848 6.74848 -1.87629 3.96452 -6.21807 7.61829 -2.93623 -10.2324 -3.25354 -5.71535 -44.7731 -3.81642 3.43697 0.0239714 -0.810102 1.01439 0.142083 0.864699 -0.123691 -0.924503 0.670943 0.169346 -1.27992 1.02574 -1.00124 -1.55293 1.32467 -1.55526 2.35914 -0.803373 1.2433 3.25763 2.42609 -8.42549 -1.0574 -15.1205 3.4344 9.97161 -23.8116 -11.4781 5.98414 -5.03055 2.24579 -3.49233 -2.27982 -7.44279 8.26416 11.3047 0.31907 4.06094 -6.27783 -5.46865 -10.6864 -7.31855 0.557523 0.703296 -2.82467 19.1358 -12.5776 25.8089 5.00542 -20.1292 2.23808 -4.6126 -0.384209 -3.14568 3.95222 -33.61 -16.2817 20.507 28.4172 24.537 0.378521 12.4365 33.8241 11.9419 21.3078 -4.28809 -0.653799 -0.549631 9.42731 2.25372 -2.83882 -28.2216 0.976431 -13.0922 -0.288203 0.146033 1.98923 0.168831 -0.723609 1.0105 0.105808 0.46517 -0.0804119 -1.02818 0.811326 -0.285531 -0.337615 0.228777 -0.760659 -1.59986 2.05487 -0.822425 1.47433 -1.63402 3.08099 1.4838 -2.03664 0.295453 2.77731 0.198367 0.6977 0.128723 -1.9167 -7.89561 12.7556 6.68686 7.50819 7.78564 9.0974 9.84251 -3.48475 -17.604 -14.3283 2.92505 -1.20329 8.37 -14.8548 9.00853 1.08325 9.73043 -2.72889 -1.56853 -4.0807 3.68833 -7.50858 -1.80852 -4.4648 -0.448661 -4.23467 1.45722 -6.40186 -13.6975 -4.01784 2.02778 -5.1277 -4.12208 -2.16508 1.05041 -4.00986 -17.9584 -4.44279 2.20589 13.2155 -15.1716 -7.47246 6.46242 0.746115 -7.73512 2.64163 2.87599 4.95736 -5.91614 -17.7078 -0.372302 -0.776888 1.0978 0.464156 0.868665 0.0577561 -0.933005 0.65598 0.320329 -1.17571 0.345516 -0.603946 -2.12777 1.59362 -0.950597 1.44454 -0.103786 3.13436 0.155572 1.24431 0.662676 -1.33497 -5.57639 1.14246 0.386257 4.25904 5.69595 8.65527 1.74655 3.48025 -2.20457 3.4948 -5.77379 11.4948 15.0555 15.0377 2.28994 -11.5924 -6.60091 -3.81213 -2.74959 6.62139 6.74526 21.5324 -3.83512 -4.34269 2.21955 4.38736 7.52166 2.77047 2.46085 14.7683 2.45405 1.04647 -4.22135 3.97537 18.7278 -5.97443 1.93065 -4.04604 -22.5095 1.76513 -0.0266996 2.65236 -9.09042 -5.56355 -15.7524 -2.35299 11.0196 10.0818 -8.3083 -14.0963 8.27725 2.14888 2.28399 -12.9746 0.0831627 -0.792895 1.14367 0.504543 0.58959 -0.540884 -1.02957 0.852115 0.39849 -1.79135 -0.111465 -0.341246 -1.5386 -0.0104904 0.499213 1.41751 0.257114 2.62951 -0.519451 1.07345 0.962386 2.2091 8.73695 0.387043 -6.20727 -2.26405 5.26939 11.8806 1.76987 7.8377 -12.2807 10.4263 -1.65441 -4.74514 6.18565 -11.0958 -3.95604 -5.51852 4.33325 2.31175 -2.95058 15.5228 15.3349 -11.0022 -11.1148 -4.94684 3.22542 -5.96063 4.72892 -5.15248 -8.46882 0.566909 15.0276 -2.08401 8.23699 7.28615 3.97361 2.65289 -22.9769 9.57797 13.4074 1.50023 -3.9353 -0.566786 -0.43571 -0.489974 -5.31299 0.537167 10.2224 0.916931 20.9085 2.76588 -10.0244 -5.29983 -20.3332 -6.4938 0.0159485 -0.72107 0.945797 1.03793 0.586565 -0.89963 -0.957251 0.859718 0.744818 -1.58503 -0.644747 -0.670254 -2.60247 1.52898 -0.331273 2.20834 -0.198331 4.61154 0.406604 -1.05494 -1.63851 -2.0925 -10.0366 -8.64869 -1.3747 -2.45091 -1.55847 4.10671 -14.4991 0.218576 7.42962 5.68175 2.40828 -10.8584 10.5059 -8.96338 -5.91877 -13.6871 -5.80552 1.58777 -2.78522 -24.6653 36.4063 -3.13871 -10.0793 -2.93365 3.45875 0.204836 -10.7562 -8.20432 -14.1025 -2.85576 -1.64164 1.47354 21.0521 -3.43637 12.2182 -1.03513 2.02609 -11.2529 -4.00809 -5.622 -1.51297 -2.62778 1.23173 -5.1784 -5.45379 22.8048 -0.361701 -5.72715 13.2481 -7.72285 13.2494 -2.37433 3.19681 2.38413 0.0335483 -0.664158 0.991939 0.921048 0.720175 -0.504935 -0.945923 0.252029 0.915085 -1.07188 -0.34601 -0.796156 -1.53922 0.779833 0.452237 3.11462 -0.434133 -0.384518 -0.245268 2.94785 -1.96289 4.11923 -3.03816 -0.224952 -5.46932 -4.03228 3.1305 4.92751 -11.7712 1.35819 4.36832 1.54736 4.30783 -3.50612 0.49926 16.957 1.45243 -2.004 9.45973 5.70525 -3.00172 3.02661 -1.92677 20.4177 6.46779 30.832 -0.413084 7.3541 35.9499 26.3011 -10.4691 13.2208 -4.57504 2.40437 11.5114 -1.24227 2.39333 6.65008 -5.34644 -10.5093 3.67722 -3.12862 1.35877 4.11045 -0.122778 -12.8562 6.10177 5.60828 -1.44236 24.5737 -8.26791 33.5314 -5.1666 2.87346 6.85323 13.3061 0.122806 -0.822148 1.02728 1.45311 0.504734 -0.349668 -0.991299 0.776339 0.743535 -1.09356 -0.00477106 0.284678 -1.55723 1.57763 0.300422 -0.0266522 -0.383946 -0.0445908 -1.27802 -2.30843 -10.2374 2.94047 -1.54135 5.33863 2.15797 -3.53596 -14.3083 4.17867 9.38895 -1.18497 -1.94583 -4.23038 -2.54293 -11.6311 -6.66124 -0.727103 -3.03328 6.54194 2.34268 6.50453 -4.45295 2.76002 -2.78066 6.36768 33.8582 -1.30716 1.3309 1.33594 -3.20873 -3.69169 -3.77205 -3.75658 9.68878 -3.25983 -6.71946 -3.52629 -1.23819 -3.03904 18.4001 -7.45944 -5.19678 -4.76542 2.14587 14.5926 0.370148 -0.526994 -4.85313 -9.25485 -24.1033 10.783 -4.53074 -1.10601 6.61565 3.41884 -10.685 2.48379 -0.0320392 -0.775749 0.975723 1.81055 0.134182 -0.246465 -0.726098 0.558092 0.239626 -1.38255 -0.0154833 1.52424 -1.37423 1.12207 0.253514 -1.04425 -0.499114 0.275251 -0.488446 -11.8137 5.87957 -2.90925 -3.51621 -11.1393 7.63293 -1.19234 -7.97064 2.85561 -8.11814 -3.08013 -4.13245 23.6623 -2.61528 -16.1869 -7.39449 -12.3615 -14.9614 1.84242 -24.783 6.70942 6.8967 -7.01628 4.8072 1.15096 -2.35343 20.9411 -0.672849 3.61295 6.27756 3.93065 -3.55597 8.87647 2.97993 -12.7962 -1.59932 0.824896 -2.12192 0.317044 -16.1146 7.57434 -14.3208 0.270371 -2.57364 8.29973 20.1605 7.67383 -2.43848 13.958 0.897076 -11.9378 -0.15901 -17.3619 4.63943 6.20381 4.035 -5.20036 0.262548 -0.715636 1.01248 1.15716 0.123385 -0.342589 -1.29248 0.159055 -0.1863 -0.838551 -0.128678 1.49949 -1.48375 6.45509 -1.09838 -1.68236 3.96435 2.66111 -0.839062 0.0709297 -15.0247 1.71308 22.5746 -0.723775 -9.08628 -4.26571 7.94726 7.75981 5.68598 -9.66403 -6.30859 3.76838 -6.09421 1.77276 12.6812 7.15389 1.587 2.08706 -7.3682 5.93 6.96576 2.08164 7.49901 0.272491 5.15559 5.2313 19.3488 -5.19851 -1.91724 1.72197 -1.40357 3.61534 -9.13867 -2.75972 -8.18886 26.1675 -10.2003 0.921641 -6.83161 5.4144 -11.1581 -0.423586 -1.69739 -4.16014 4.57699 -2.09749 -3.8059 -3.99317 -0.00629853 0.357723 -7.28366 17.5349 -2.41735 14.6465 -3.68382 -4.81847 0.068065 -0.652935 0.906222 0.744167 0.86046 -0.459157 -1.08288 0.235513 -0.35657 -1.24016 0.964347 1.41997 -1.11704 3.35784 -0.599684 1.96742 -0.765464 3.25176 -3.39597 9.92799 2.16201 1.5387 4.14982 -1.53214 1.8358 3.4558 10.5667 9.03183 -4.56125 6.46494 -0.0335462 4.63903 10.7364 -21.0614 -15.6867 0.236871 7.25349 -7.73509 1.13308 3.11482 3.16219 2.01029 -1.33551 2.79188 14.4723 18.7688 -4.28042 -16.9631 -2.37527 -5.41848 6.41198 5.07125 -9.34044 1.76168 -1.25616 -5.53807 -2.32454 -11.9438 2.05962 3.93476 17.5343 -12.7602 -0.74928 -4.42391 -6.25687 5.10978 11.4169 -8.45394 -13.6533 -0.0128228 -9.25145 9.05257 7.50959 -2.41347 4.96857 18.2952 0.119675 -0.901401 0.974791 0.8758 1.31614 -0.397345 -0.969853 0.216858 -0.298616 -1.84601 1.10886 2.49625 -1.27376 0.687806 -0.79512 0.558969 -0.916187 -0.201658 2.5829 -1.73685 1.37506 -3.42857 7.58213 -9.91028 1.78545 3.55673 -0.332709 -2.78626 7.23881 1.69779 19.8291 -2.7446 -2.14129 -10.6135 3.36322 20.0174 2.56623 -25.8832 8.07096 0.207133 12.5171 7.2728 -5.9779 -6.19582 20.0769 2.61537 -25.3153 -20.0445 -3.5518 -3.87307 1.36099 -8.45787 6.98086 -11.9398 -0.283182 -5.24929 3.34886 -7.99897 -3.25063 -15.582 -7.58479 4.58353 7.72058 2.66772 0.790852 2.07307 10.5725 3.61764 12.5084 2.18379 -4.31409 4.91925 3.21628 -4.51995 4.97508 6.19089 0.13307 -0.678472 0.862649 0.753319 1.52396 -0.354285 -0.905028 1.12844 -0.0970239 -0.971142 -0.106391 1.24826 -1.67466 0.694432 0.24044 -0.723257 -2.0471 -1.68039 2.94451 -0.401414 -8.204 -1.36073 5.96283 -3.81605 12.2227 5.84119 0.898843 -0.302682 -20.4471 -4.12819 -5.67734 -8.71845 -0.302725 -4.98732 -1.92506 2.31482 5.70047 -2.90078 -16.0071 -1.75351 -3.44955 0.937377 3.08445 6.92231 -5.23307 -2.10643 -3.93165 -1.7205 -0.100634 3.89838 0.322246 -0.233384 -4.29026 8.61913 5.3392 0.947662 -11.1826 -5.69618 1.3949 0.90838 24.8031 19.1033 45.8928 -3.73838 18.1298 2.80516 5.9656 -9.87277 18.42 3.74867 -1.03095 -8.49093 -4.52102 -9.43914 -0.555959 3.21787 -0.0355362 -0.753458 0.858079 0.918234 2.04518 -0.468406 -1.11863 1.02301 0.0465218 -1.81566 -0.800866 0.623883 1.474 -10.8179 -2.34455 -1.26093 -17.8417 4.66693 3.771 3.4263 13.9836 0.483921 -13.4987 2.89435 25.4924 -12.5699 1.7172 -5.26291 13.0051 -3.17534 2.51488 0.106735 1.93876 17.3434 -2.07043 4.67649 -28.5453 20.3401 15.7356 6.55852 -0.533222 -12.6819 7.95943 -8.53673 -0.822388 -7.80376 7.70174 -9.76922 -5.10035 -1.00847 8.61879 1.59043 1.19094 -9.12038 4.73198 -5.14764 -5.43466 6.14199 7.88469 2.59949 -7.31962 -0.860141 -3.40514 -3.64457 13.1924 8.1391 1.0738 -0.784872 -0.999014 -3.04136 10.7584 8.84129 1.27472 7.18616 1.86693 2.35553 0.0847579 -0.722552 0.97639 1.16715 0.558604 -0.393393 -1.18195 0.605343 0.231916 -0.300002 -0.511102 -0.426637 0.937504 3.39702 -1.37966 2.80515 0.852642 -1.42778 -1.16751 -1.20997 -1.12744 3.08266 9.636 3.26616 -12.3367 -8.94968 -0.243724 -42.9813 -5.5393 1.59074 4.87175 12.3494 -10.1215 7.29096 -5.91701 17.6957 1.17132 -0.600109 4.36818 23.5433 -3.15518 -5.21332 2.79378 5.6717 -17.1455 -2.82425 -7.54161 -4.92832 -2.72081 0.0919726 -0.48873 12.8214 -1.83574 2.21399 -0.376579 -6.72719 -5.73539 0.591972 -3.02013 -28.1325 -11.4992 -30.2874 18.8023 -2.03506 8.49475 2.41239 4.99499 -8.16392 7.83201 9.54175 1.53586 -10.0036 -34.2188 6.96775 0.934758 -2.48435 0.0571636 -0.810285 0.912501 0.925885 1.02061 -0.313144 -0.861587 0.696485 -0.127449 -1.57786 0.475942 -0.176901 0.72183 2.72186 -2.13764 2.28444 0.455737 -12.7769 4.37489 2.8024 1.70243 0.449928 0.910853 3.49586 -6.57453 15.476 -6.15635 7.59872 0.676693 1.42067 2.93323 -7.96451 -0.728978 19.1013 -12.2957 3.47807 14.6121 -12.7065 9.79723 6.65109 7.02414 4.00777 -3.21317 6.98004 4.8188 -5.77927 -5.61314 11.2803 -2.65425 -8.8969 7.41486 1.87888 5.38161 1.77252 -7.86829 7.07124 3.15301 6.48877 -6.89399 7.15481 -2.36454 7.29559 -15.7195 -27.5829 -2.07956 2.65701 -0.64234 0.100114 3.7298 7.15156 -9.66486 -23.4293 -18.7023 2.42734 2.70883 -11.5652 0.0875544 -0.92646 0.730197 0.953036 0.986339 -0.415867 -0.82796 0.828467 -0.982615 -0.43867 1.36319 0.531365 1.08714 1.40982 -1.05069 1.04443 -1.87664 0.573382 1.51955 2.82342 0.786277 13.6891 2.76029 9.09819 11.6192 -3.15719 5.79622 -8.10497 0.136875 -0.852355 -0.734411 4.57011 6.84071 -2.28919 -3.69309 -0.71007 0.950908 5.02893 9.03157 0.767976 3.4643 4.20076 0.68133 -4.73498 -0.41556 -4.20362 12.4404 0.510049 4.22935 5.48802 7.7277 -5.44693 6.92539 -6.12531 -10.2643 -0.370141 2.20928 0.319038 6.16587 -38.0348 -2.02211 -10.9048 -3.02045 8.03256 -9.3961 -5.12667 23.0946 -31.777 6.07189 -8.96294 -0.811093 40.0263 -8.5238 -3.37 3.56049 -5.20182 0.0839386 -0.76944 0.83654 1.11351 1.71529 -0.319179 -0.616485 0.926398 -1.40894 -1.31105 0.897763 0.143096 0.816662 2.00457 -0.581487 4.86732 1.04566 2.49486 -8.29606 -5.33328 2.19342 14.8304 -1.69939 -6.5593 6.83726 3.55363 -18.3151 -7.06784 -14.5506 6.67608 -4.43222 1.31387 -5.91121 1.25047 1.63609 2.3061 6.25726 -7.1012 1.78798 -4.44205 -10.3446 15.034 7.5398 12.5472 -4.94938 3.08067 2.71405 1.93362 -3.16272 0.439854 1.0691 3.54636 -0.420422 6.49928 2.13103 14.6474 5.83328 2.98662 -1.00994 18.4051 -2.31545 1.56536 -12.2072 -5.06307 5.53889 6.28154 -2.8552 -2.68534 14.1046 -22.5365 -3.25672 0.0928456 13.1367 -3.19995 9.44171 -8.06108 0.188839 -0.803131 0.96963 0.957248 1.32645 -0.52418 -0.842954 0.723806 -1.59376 0.722175 0.825907 1.14373 0.816813 3.80057 -0.650477 -11.3999 11.2381 11.0545 -2.27214 -22.8735 5.77976 -22.1788 24.1557 0.426553 -0.661347 14.0599 0.635951 2.53456 1.98975 3.91061 3.52613 -2.77024 6.65001 16.238 -4.57293 2.70311 14.3932 -0.416449 -7.02145 1.15682 14.9519 0.904492 1.6908 10.4062 4.98981 -2.40639 -8.50515 8.79079 12.1116 -13.7105 -6.43147 11.9563 -0.673078 4.85298 24.8827 2.7198 16.0537 -2.31955 4.48066 -5.71817 -2.21644 10.2918 4.98553 5.09286 -0.486783 -5.04664 -6.59236 -9.14486 5.62829 3.99206 -4.02491 3.40162 1.18551 -0.120155 -12.5224 -2.75587 0.0816224 -0.861069 0.935914 1.31989 1.00635 -0.12044 -0.942544 0.678212 -1.57883 0.360558 0.584825 1.8377 -1.27217 3.89992 -4.30873 0.0892515 3.31407 18.2999 2.77465 0.574663 4.96698 4.57023 4.57768 19.2196 1.58085 -11.0004 7.45283 20.3163 -5.24245 0.660711 5.72394 -9.64457 -14.0738 -15.296 10.46 -0.17215 -0.530478 18.2117 0.220581 -6.4098 -1.8927 0.141945 27.2314 -2.29302 8.14244 0.973772 6.1423 -1.36013 -9.25151 -2.49885 3.20976 25.2344 0.654784 -5.72715 -2.09855 -0.636057 -9.87756 8.30503 -1.70671 -5.326 10.7798 2.29235 -5.91997 -8.17408 -3.09736 -16.5331 -8.99032 -0.591984 13.1882 9.19915 -9.92607 2.30208 -3.54397 -10.8288 -0.700586 -1.55527 0.247138 -0.709087 0.890862 0.647447 0.0874509 -0.26989 -0.767951 0.651314 -1.60806 2.02646 1.10079 0.548219 -0.918643 -0.924085 2.12908 2.83524 -0.621507 2.42962 3.57854 3.68127 -4.51377 2.79806 -24.2927 -6.8067 -6.87585 27.8522 -0.422216 0.807018 -1.02124 8.95086 -4.36675 9.04963 1.59082 11.9118 8.30845 11.4152 3.07516 -0.7736 7.09962 -2.55656 -5.03975 2.96103 3.01447 6.30236 -4.96647 -0.0935124 -4.77787 -10.8242 -6.52912 -4.58793 14.7291 -0.837953 10.0886 9.44347 -1.42608 8.66229 1.05027 1.13786 14.4167 -0.951723 9.85249 -8.5143 0.848463 0.32724 9.30856 6.35892 -7.96261 -12.232 -16.4602 0.0302778 -4.87162 -4.28446 0.292526 -1.50501 11.1384 -3.91535 0.117417 -0.618764 0.993085 1.45206 0.246485 -0.279822 -0.865891 0.502066 -1.54092 0.87446 0.813556 0.0851691 -1.90643 -0.849791 0.905579 -14.3956 -3.44241 -0.633238 -0.954145 -3.50648 -7.30064 -0.339874 2.35046 -3.16067 -7.59126 8.62752 -10.7146 -0.649175 22.0891 -3.7825 10.5425 -2.48023 6.39648 -5.94171 -1.93187 -3.41959 5.72967 10.4983 11.1803 0.239298 0.699505 -4.72755 -4.79614 -0.723997 4.91622 0.54925 -1.6314 4.54919 -5.81582 13.1531 1.57641 -5.19712 6.49988 -11.9273 8.60642 6.15413 -5.65641 11.513 0.20293 -1.4176 3.07559 3.92234 4.61882 6.70356 2.79639 3.19573 6.11149 6.44981 -2.3702 -15.0955 -7.05405 2.81875 30.3885 -0.875044 -6.2227 -7.53695 0.126451 -0.651864 0.98764 0.78376 0.698433 -0.374977 -0.839189 0.947087 -1.03079 0.250766 0.946469 -0.768761 -1.18755 -0.297677 -0.0216491 2.15094 1.30565 -1.29607 2.54413 1.28229 -10.8515 -17.2868 3.82125 -1.3042 5.19019 -4.6991 4.83016 -1.2981 3.82868 0.937334 -3.50753 0.11516 5.4489 1.28421 -1.6857 4.06816 -3.08759 -10.7361 0.215877 2.0045 -10.7536 -1.66203 -0.740636 13.4481 -5.6174 -4.58977 2.57375 -2.50357 1.36898 -10.7044 2.16532 2.41392 6.65362 -6.24053 7.59163 9.5388 -5.68494 -6.96175 -4.72558 -5.37427 27.5078 17.2856 -1.50903 0.961275 -12.229 5.48623 -6.9805 6.40706 -0.161004 -4.92136 2.28174 2.72609 2.50909 29.5625 12.8897 -1.55536 0.202764 -0.760881 0.88031 1.05887 0.432117 -0.441587 -0.778193 0.973554 -1.23542 0.516574 1.56728 -0.213972 -0.742601 -1.38099 1.13314 -2.11307 1.22299 -1.44476 -1.57502 -1.94999 1.11407 2.40596 4.2492 10.7257 24.784 0.908557 -18.0314 -4.69246 1.72976 -4.06565 -6.98702 -3.1059 -0.217639 5.6481 -23.4694 -0.605565 -5.16714 -11.763 -9.27757 -5.99085 -3.56569 6.21059 9.20815 2.47997 -8.32484 0.995349 -10.826 -7.0602 9.24703 -4.34238 -3.022 -5.4694 3.98207 -6.26585 5.06353 32.0233 6.49949 2.02707 18.0316 -10.2235 5.3164 -4.37217 -1.32603 -2.91768 4.98381 -17.4332 -0.855818 10.8677 -0.324228 40.6121 -2.62585 3.60698 -4.04837 1.11082 25.1731 -3.03053 0.149526 -0.818519 1.03018 1.27067 0.188111 -0.361993 -0.872956 0.10537 -1.78945 0.883717 1.87719 0.453583 -1.39857 -2.55101 8.21216 13.8824 -7.53664 -1.29237 -3.30757 -1.21229 4.54233 -10.4761 14.5273 51.8249 -6.4799 0.152785 -0.906092 2.04321 1.64343 -3.63659 -6.42902 11.1209 -5.00285 -5.83838 5.83845 6.74689 -4.99858 8.16469 0.964651 6.17124 1.14103 0.174206 1.03503 2.40837 0.292827 0.990732 -0.27206 3.36672 -2.88483 -5.39343 7.83806 11.5756 16.4675 -5.40057 3.51266 3.09551 -9.04555 -1.0645 2.90562 -5.44494 1.15169 4.61428 6.29995 7.78468 -13.808 -12.8729 3.09484 -1.45658 -13.5972 -4.67161 3.89109 6.68399 -9.29275 6.11331 1.81541 -11.0513 0.0566061 -0.731098 0.988998 1.12002 0.441699 -0.0976576 -0.83009 -0.133571 -1.14747 -0.259869 0.721185 0.177447 2.42302 -1.62684 0.208002 -2.83254 -0.929335 -1.21768 -4.42294 -1.81903 -8.22304 -4.81824 6.39785 -1.65954 2.56053 10.9948 -4.50342 16.0858 -1.80925 37.6528 0.511073 -4.36709 15.1008 -9.03604 0.0925458 -7.07576 6.21544 -7.07802 -11.9723 2.84086 6.05776 -14.4874 -2.0452 5.84586 15.435 -2.37734 16.1658 1.94028 0.376423 -1.75101 -3.57904 -2.49359 -0.986121 -8.71648 -0.0676134 -2.35656 -1.91222 4.75999 -17.9381 -2.30481 13.8943 -4.63632 -6.00026 10.8682 -29.5444 -1.38102 5.12648 -14.139 -13.2401 -2.37428 15.185 0.0356053 -5.96132 6.3883 -6.18797 0.982151 0.0888506 -0.787274 0.985516 1.96037 0.151344 -0.236359 -0.892333 -0.239781 -1.0614 2.34236 1.18574 0.430155 -1.94311 19.8745 -1.23069 11.6452 2.36575 -0.0705842 -0.120643 1.82304 -0.758681 -11.0596 -5.66206 9.25543 -10.8213 -12.6745 5.0789 8.63607 -11.186 -3.10408 -26.4857 -5.17794 -14.8013 -10.6544 4.7063 -15.752 8.98581 -10.1135 4.91166 1.41013 -0.399156 -0.794998 3.77228 -1.42177 -0.653066 -7.22852 14.7603 -6.62838 32.0339 7.83794 -1.77389 -1.54058 -1.60945 -5.8134 24.5348 1.20328 -39.6118 -1.30759 -7.67098 -3.35024 -7.43353 2.25417 -7.16561 3.25179 0.832317 2.35427 2.02302 -8.42721 -2.9077 11.3882 -1.9759 3.42201 0.0927274 7.33054 -7.93047 2.64785 0.0760857 -0.856915 1.06311 1.25084 0.272042 -0.0181213 -0.934348 -0.300039 -1.06683 2.09879 0.604188 0.740002 -0.92891 0.0771337 -1.5652 2.48909 1.89768 0.0193717 2.41662 -1.94931 -0.801227 -4.51036 4.65499 -10.9818 -5.09514 7.41672 -1.11376 5.03579 -2.25323 -0.550574 -8.99088 -4.73385 3.11761 11.5825 -8.38243 1.43996 -7.31348 3.20182 0.76124 10.7188 1.65039 3.16225 -5.05378 -4.1813 -4.83411 -1.87201 -9.73387 0.729891 -3.36542 1.97041 -2.95931 -6.26043 6.18816 -6.43342 -11.6397 12.1804 -8.73198 -2.09656 2.89705 28.6931 0.699425 9.3471 5.02919 -0.320753 16.1093 -1.31951 11.8377 -4.21069 -2.59718 1.4691 -3.1522 -0.142332 -1.46117 3.6434 5.16889 -6.11854 0.0619137 -0.691555 1.04364 1.76783 0.35204 0.144756 -0.881601 -0.654487 -0.827835 1.7965 0.576394 0.0584011 -1.81828 2.35737 -1.62766 3.61265 19.0804 -1.22711 -0.194012 -0.361792 -1.00079 -4.92364 3.88982 7.28009 -11.528 -4.16 7.70679 -5.5564 -9.66917 -16.1237 -0.750319 2.54605 -0.779966 1.97022 -11.7447 -3.65951 -2.95055 -2.93979 -0.307815 8.51445 -14.5024 -2.16014 -13.3876 0.147318 -6.31098 12.5452 2.04137 10.1369 -6.96542 18.4688 -6.58447 -16.5623 -10.809 -0.354093 -5.45308 0.263903 2.15348 -20.0184 -9.49164 -4.10449 -6.61994 -1.15943 -4.39891 0.798099 -17.2815 -4.08471 -14.5363 -2.06628 -0.229069 -5.20796 -8.24824 -1.96274 -2.08548 -6.94789 1.92911 3.62392 0.151886 -0.865442 0.947492 2.08254 -0.239921 -0.0502079 -0.919824 -0.706134 -1.08214 1.05513 0.99291 0.463065 -1.48554 1.84887 -2.37898 -0.0607523 -3.29795 1.91951 -8.39477 -1.51276 2.48458 -2.69138 -14.3157 0.42061 1.1665 0.239496 -18.4402 -0.417193 -9.08121 -8.89664 12.1667 -2.54158 2.83255 4.65467 3.47113 4.98682 -1.69559 0.492212 2.93932 -4.35114 7.13109 -13.3669 7.16879 -0.203414 -3.26036 19.6721 4.23269 -8.30885 12.7253 -7.55473 -11.8274 10.5547 -1.44531 17.4455 10.4698 20.3788 1.36285 15.63 4.4382 -4.15791 6.06511 -7.50062 -3.30585 -4.79485 -7.19042 -6.00215 0.435701 1.18925 -6.3965 -2.39651 0.143361 -9.28996 -28.0793 -0.753851 1.19029 -10.7559 0.00269755 -0.829933 0.91487 1.33217 0.617289 0.0222748 -0.667889 -0.515812 -1.2642 1.37315 0.858922 0.409209 -0.474211 0.731801 -1.54228 1.82835 -1.82445 2.14164 -3.86088 -3.26516 1.24217 -15.5498 -5.47264 -0.357352 -5.58451 -6.16404 -4.49976 8.20588 -10.428 11.2209 2.30333 -13.4974 0.806112 -7.36074 -7.71223 -12.8183 6.05799 -6.20863 0.651384 2.38084 -17.1966 6.3252 9.51662 -5.2506 -2.75497 -0.34413 -0.450848 16.7438 4.63876 18.1569 17.9289 -3.78351 6.8385 16.8623 -8.07311 3.48581 4.01663 -6.18522 12.0347 4.04322 -12.0214 -4.28609 11.3443 9.97913 5.32479 -6.93256 16.169 4.0797 -0.618342 -8.01547 3.05085 -2.41761 5.29805 -13.2263 -2.09792 2.06688 0.285221 -0.802162 0.907668 0.914249 0.654775 -0.328184 -0.517402 -0.193876 -1.04375 1.06902 1.15194 -0.029797 -1.24662 1.17257 -1.74654 -1.72114 1.19682 3.10928 -2.32273 -0.626397 6.08837 19.3396 -1.84884 8.89491 -12.7139 0.224335 -5.52133 8.61645 4.53487 -0.492113 -4.24639 -0.64623 1.5655 -1.71493 19.6647 12.4125 1.14878 -3.11011 -1.59883 22.8954 0.0370712 4.66181 7.87785 -6.97279 7.98077 -5.67116 2.52928 -5.00541 11.9655 6.23454 -3.21996 0.950437 -5.65859 -7.92311 -0.458929 -5.3021 -2.21854 -17.4718 2.66259 27.0705 -24.7822 -2.15394 4.13171 -22.2898 -2.87683 -10.9485 3.28544 0.0947934 -1.97733 -2.14878 3.39661 -4.16688 -1.51845 -1.81244 0.0294795 -9.82435 0.184715 -0.792046 0.939944 1.367 0.455041 0.127072 -0.727461 -0.128188 -1.37047 0.803444 0.0305255 -0.398395 -1.62181 2.2763 -3.87045 1.25236 -1.24022 3.91787 -2.24754 6.88812 -2.11727 4.49592 4.42361 -1.43971 -11.5162 17.39 -7.58306 -3.97542 2.15878 6.05112 20.242 -12.0415 0.690961 8.12316 5.21185 1.40926 -13.2616 16.1023 -4.1124 -7.79111 2.3795 1.97804 -2.72286 21.0869 -4.68125 -31.7097 -12.7787 -16.9463 -3.86391 4.25752 -4.16563 -1.66724 -15.2435 2.79314 3.36822 4.75145 -2.49376 9.57204 7.29959 2.5124 -10.8167 -3.39395 -9.29093 3.04423 -6.7373 4.87373 5.45942 6.65666 13.5252 7.32614 -2.65395 24.7119 9.65397 10.6947 1.49549 16.1463 0.25304 -0.737895 0.893695 0.70155 0.907652 -0.127781 -0.0901615 -0.676978 -1.0127 -0.0184182 0.479648 -0.890658 -0.0886883 3.09622 -3.88139 2.58306 -2.05444 1.60439 -1.06631 4.83674 -2.6893 1.47851 5.04382 -4.65342 -0.489492 5.95192 7.90451 8.185 1.62244 -15.8916 -2.99146 7.54785 -22.0997 2.35258 -0.102931 3.41498 -0.780682 -1.94499 8.15091 -2.06742 10.9226 -16.3812 -3.27424 -9.68117 0.326929 -4.93108 -3.21594 -26.1152 29.3084 15.9814 3.9665 -0.72025 0.42302 16.04 -7.14381 -8.3009 -3.74994 -8.00136 -1.84435 -13.2674 16.2192 5.54383 -14.4055 2.39689 -0.106969 11.2211 -2.46321 -6.32211 8.70713 -5.708 -0.983234 10.4977 6.03699 3.49768 -14.4656 11.71 0.316802 -0.740695 0.870582 0.789875 1.30664 -0.682255 0.0708777 -0.752902 -0.95637 0.772769 -0.760733 -1.06921 1.81272 10.203 -9.29425 12.9611 -1.29001 5.35594 -16.4153 -0.555361 3.61815 -0.0376162 13.7473 -7.71965 0.930561 1.19285 5.8288 4.00218 -8.86655 -18.8219 -2.47726 1.74963 -8.91497 1.39231 17.0602 17.8483 12.2063 6.89161 -8.19211 6.62362 -5.12158 -5.01931 -2.15119 -1.43194 -12.9202 -14.8895 -2.89979 9.70451 -1.44444 -1.98064 3.9326 1.76198 -9.92406 14.9326 -39.5808 -15.691 -13.1201 -1.04527 1.93034 4.02758 12.6111 -20.2386 -4.61923 1.07328 -0.0577779 -6.086 6.09839 -3.78055 -6.20775 -10.4496 -6.96308 -15.3685 -3.85525 23.9505 -0.469077 0.28405 0.192265 -0.866716 0.89987 0.584519 0.648184 -0.463375 0.198319 -0.857256 -0.550549 0.535655 -0.171674 -0.89833 0.0598498 0.758788 0.266968 -10.4916 -3.35348 2.70637 -2.88454 -14.3383 4.4637 7.34449 4.1501 5.33031 18.4925 -3.86082 6.23042 0.151303 -12.1365 -9.6823 6.93533 14.7251 8.68552 -6.84035 -4.03048 -1.6566 -1.56336 0.347247 1.32741 -1.02535 -2.95054 -4.9652 -14.2069 8.17597 0.133384 14.8442 -6.00457 5.31398 3.39669 4.97893 5.24219 -7.00809 2.88294 -1.6284 7.40487 34.4291 2.22868 2.53173 4.80577 -3.17898 -0.221537 -7.12842 -4.14407 -0.633784 2.50701 -1.77446 3.66399 -5.84389 -9.39764 -7.00133 1.72254 -17.4242 11.0735 -0.867003 -9.04148 -2.9036 0.328883 -0.731379 1.01505 0.0392008 0.447732 -0.743298 -0.197567 -0.697462 -0.243389 0.780465 -0.363815 -1.18717 2.78782 1.6403 0.477693 -4.66208 3.14501 3.89121 2.08133 1.14778 0.805967 9.0225 3.87588 20.0082 -3.67853 1.89498 -2.6564 -11.3635 4.81497 -9.09167 -12.4441 12.471 -11.1807 -8.16371 0.734828 2.63333 0.887852 14.6057 2.97969 3.56862 -10.3554 0.116162 -5.87185 -2.38538 -4.14504 10.8607 -9.01883 2.42325 5.9637 1.15504 3.76526 10.0386 4.3469 5.02822 -0.272228 -7.5296 5.06869 -11.4305 2.66851 -2.55396 -5.80952 -21.3871 4.01482 -4.37784 -11.8826 3.72872 -3.39297 -3.25866 16.7841 -13.9792 5.03916 -8.95992 -1.39315 2.18116 -5.68828 -4.45685 0.356008 -0.859676 0.835004 1.00025 0.0823579 -0.442187 -0.345137 -0.953144 -0.907162 2.23663 0.872002 -2.17112 2.35719 -2.02301 2.82394 13.9603 2.79262 -3.37814 1.67015 -10.276 5.57141 -11.1903 9.92337 -4.30757 -2.08131 -8.3151 6.23138 4.60218 2.43435 -17.2661 -5.82193 1.11206 0.0400233 -5.44908 5.70288 9.84149 2.41146 -10.4968 -5.80924 22.6727 8.71527 -7.4642 8.54081 3.7968 -0.0877903 8.77231 -3.60638 0.89938 -5.68505 -1.45467 0.403163 -3.13439 -19.2559 -10.1346 7.08823 -8.32534 5.91127 -14.3907 12.5503 1.67504 0.837354 -1.31573 12.9485 -8.71323 2.38388 0.0598107 -5.86477 -1.3655 3.13403 -9.06678 -0.309121 11.2856 -13.4956 -3.88516 2.925 3.9428 0.352061 -1.03097 0.92982 0.765393 -0.310538 -0.490907 0.575049 -0.915706 -0.691031 2.25654 1.21785 -0.294319 1.37757 -2.0258 4.80222 2.19054 -2.32949 18.009 5.63025 7.72737 -6.2236 -5.47275 0.690925 -3.65445 15.1475 3.89119 7.05345 -3.90527 -2.1191 -7.4999 -2.78326 1.18594 -3.83697 2.32935 7.76742 -8.33832 15.6885 0.0177486 3.79947 0.432077 6.10149 2.29218 4.70156 -2.38452 0.919311 -4.75408 3.4674 -5.64475 3.97132 -3.2756 4.61862 4.97212 3.3282 1.33519 -6.90497 -2.89054 10.7187 6.37474 7.5111 -0.68134 -1.67562 -0.697801 16.8785 -0.509119 -3.4927 6.0682 13.3753 -1.78633 2.03335 1.8086 -3.95295 -4.48774 4.16775 3.49617 12.5827 6.36766 0.285207 -0.857247 1.00384 0.748409 -0.160325 -0.0455115 0.305135 -1.05735 -0.148961 3.13316 -0.80279 -0.458142 -0.518244 1.10898 -1.66114 -3.03684 3.05138 -36.6521 5.69819 -2.30044 -3.75607 2.57037 -2.56086 -4.43186 -3.45141 -7.83003 7.84983 -2.15344 -4.84563 -1.60535 -12.807 -5.29997 -2.19228 -1.40616 0.548637 1.52375 -3.81538 1.7061 4.3614 -9.29303 6.21874 -21.9716 14.404 1.11516 21.9387 -8.00498 -10.8698 12.0275 -8.31542 9.04241 -6.52587 -4.1166 -0.0692391 7.36233 2.77294 -4.02529 -1.50409 1.27562 -10.6933 -10.6287 -3.87924 10.3907 0.101926 5.11467 10.9276 7.74878 2.59015 -4.70302 -1.11101 -4.1366 1.7102 9.78667 4.68784 -43.1473 -2.06994 -0.188181 0.247492 -0.859635 0.930549 1.12581 -0.633836 -0.467203 0.367844 -0.77652 -0.707476 3.29717 0.773074 -1.66235 -1.5199 3.23766 -1.21647 -12.5835 -15.0244 3.62502 -2.3036 0.32004 -5.55856 -4.2874 0.00543847 5.13126 7.08149 -6.80653 -2.09201 -0.455046 8.1643 -5.69778 -10.7137 -7.68984 -8.79928 -15.4604 -2.86507 -2.78023 13.045 -8.72283 -26.1435 -17.8381 -20.5251 -3.98624 7.73824 5.93073 -3.8825 -3.70325 -5.6946 0.536693 -22.184 13.2631 -10.2232 6.17212 -1.38417 2.10734 10.344 4.16613 -5.53336 -16.5242 2.03077 0.0117574 -9.90858 -6.85345 12.9679 0.903583 1.85951 -8.50007 4.76828 0.682423 -16.1445 34.3072 1.70008 -12.2078 -2.22138 -6.41979 -1.82012 1.08686 0.117856 -0.912895 0.870675 1.28982 0.893268 -0.290109 0.88813 -0.307166 -0.936826 2.44157 3.18311 6.6942 -2.82353 -7.68799 0.235277 -2.8525 -10.329 -8.79833 2.37849 4.6777 -0.956355 0.46256 5.23614 3.82866 -9.94017 9.82649 -12.0821 -6.89528 -0.479212 9.46897 3.38953 -9.04396 5.29643 -11.353 -1.80157 9.50862 11.3803 -14.769 7.26911 -9.76544 -10.9313 0.906088 11.118 0.344904 -4.32937 1.22017 -10.67 -7.08213 -2.7857 5.23543 8.99441 -5.52191 -18.2143 -30.2573 2.65815 -11.9849 0.0551579 19.6497 6.98347 4.12687 0.229434 2.0432 -1.68826 7.42603 6.25625 -33.4232 3.44125 -23.181 -3.13044 -21.6953 10.0518 -20.9175 1.79792 16.824 -21.993 5.37541 0.319093 -0.677438 0.832573 1.3475 -0.227411 -0.735063 0.295705 -0.553256 -1.1705 -0.314891 3.14886 -2.71402 -2.18595 1.82037 -1.66919 1.25059 9.57674 -0.130087 11.1728 5.75111 -4.52633 -12.523 1.38283 -3.85065 -7.26938 -0.433134 -7.45243 -2.07932 -12.253 -17.5348 -1.66616 -0.374059 6.47971 -5.29653 15.2265 -0.575352 0.426331 1.17382 7.61786 8.6424 -2.48329 -0.0315238 3.45592 -4.56105 -0.113202 -6.16329 -8.24547 -15.8931 -14.2675 17.7346 -8.92937 2.64899 -16.0851 1.55696 3.53836 11.2712 -5.58089 -22.6913 16.4465 -1.24713 -2.28009 7.41615 15.7372 7.86173 8.49315 -1.57729 -35.5823 -2.99636 -11.4608 -26.1091 3.93024 5.40056 11.1323 7.979 -16.4904 -10.244 0.367189 -0.72657 0.859247 1.50082 -0.667526 -0.467817 0.83167 -0.862613 -0.933514 0.329316 2.69322 -1.55417 -2.31162 3.13096 -0.315251 7.49563 -6.6485 -0.35485 -0.533296 -7.1415 -2.92439 2.06373 -0.27484 0.780647 3.40183 4.40986 -9.00081 1.44582 -12.8016 -7.89902 0.230087 5.13318 -4.61934 -1.76801 -7.52849 2.83621 -4.64063 4.50298 9.71687 -6.53812 -9.43215 -0.251425 6.89501 -10.0345 -5.85328 -7.6697 -0.0212544 -20.1493 -4.9503 4.77627 1.3962 -11.9179 4.71264 -12.4969 3.20947 11.863 -8.43257 -1.4434 14.1629 12.9118 3.9209 -6.3379 -4.63747 -10.6829 -0.651331 -6.19632 -7.86405 -2.32521 -9.12604 -9.74037 3.60242 1.80713 -2.08255 -10.2531 3.35796 2.85661 0.271259 -0.78235 0.925397 1.37748 -1.06228 0.135059 1.26723 -0.805687 -0.864665 -2.23182 2.88417 0.796121 -6.14571 16.8671 8.63733 0.850219 -8.39061 20.9902 7.93301 -1.61182 3.57207 -8.15538 11.7675 5.9505 3.06092 -11.1557 9.24349 -1.55736 -7.14301 3.13197 8.54082 12.1117 11.9478 18.5212 -1.73213 -4.18872 8.31807 7.6998 -8.76282 -2.95563 -9.13093 -6.85747 -0.359294 -0.98974 -11.1632 0.461079 -9.7197 14.6243 -2.13239 2.99476 -1.63091 -5.02366 -4.53217 10.4069 2.62058 -9.60559 -8.52856 -0.937382 11.436 14.3539 -1.91025 -2.82506 4.88596 5.19467 -12.3109 6.84389 4.33324 17.1527 9.47431 -10.8729 0.240146 -17.804 0.73781 -8.45925 2.44746 6.36947 0.360443 -0.724928 0.862002 1.16416 -1.20834 -0.104424 1.6011 -1.72047 3.53349 -2.60048 1.12782 1.84834 3.08461 0.981254 -8.2233 10.0762 10.881 -1.78815 11.8945 -12.3021 6.4033 12.8296 -9.17317 -8.57121 1.09706 8.33614 -7.10171 11.1171 4.13007 -7.77626 13.9707 6.15597 4.51319 -11.8656 -7.6899 -1.63372 12.7764 -0.138191 8.7887 -12.3576 -2.41309 14.4669 0.630773 0.206527 -3.38633 2.00031 5.11329 -5.95218 -10.0988 11.6486 -8.08807 5.83566 0.106746 -1.55903 -31.2509 12.6534 0.861107 -8.5904 -0.0477443 -0.932437 1.85946 9.7111 6.12869 -11.2739 -4.14977 -3.15586 2.63505 11.483 -2.60869 4.83457 -12.2481 1.42277 -6.76652 -10.7982 5.8376 -0.576419 0.407795 -0.794244 0.848944 1.36071 -1.99898 0.484794 1.32221 4.21905 0.896279 3.84524 3.23776 2.78706 16.4038 18.4798 2.71458 4.79941 5.36957 -3.69523 7.36614 -2.8032 -7.19474 -3.82088 -5.64362 -7.42884 -2.09568 -10.5701 -7.35381 -3.89941 -10.9814 6.03161 -1.36525 -3.32861 6.71796 17.2609 4.32954 13.2438 7.77389 4.19072 2.47304 3.11626 16.7742 9.87221 -15.5735 -7.49267 9.68826 -4.06963 0.347732 1.36958 -11.1131 -0.208827 -14.0382 0.4362 -12.6836 -0.225504 -5.85593 20.4146 -0.742634 2.68152 -2.38977 1.84937 10.2255 10.8775 -2.86537 8.11568 -2.54322 5.46604 -1.99505 7.84262 0.671181 -8.59853 12.1092 2.45616 -7.24012 -8.59871 17.4366 -5.74413 0.498157 -0.73274 0.880829 1.07231 -1.64689 0.52559 1.0252 2.71571 2.52743 4.83761 0.613627 0.236375 6.61271 -0.478622 11.572 -9.56961 3.57196 10.5432 0.20308 3.55764 18.6035 0.0377148 -1.05031 -1.7195 -9.74399 0.262646 -5.86861 12.5585 7.43747 -5.87216 -3.08655 2.94347 -1.46812 -2.83748 7.04211 10.2031 -1.42937 -9.80469 1.41997 -1.58694 12.0378 -3.2831 12.6567 -3.75738 -18.8115 -7.00103 0.356951 -11.2296 1.0796 -2.29505 16.5925 2.03852 1.3727 -3.58312 -9.66269 -8.46413 1.62426 -18.7792 3.66427 0.940112 5.31408 5.71033 0.350176 -6.062 -13.4573 -3.03346 11.1641 6.33947 -14.9098 -7.45936 0.866727 -6.59241 6.5898 -2.52649 10.8395 -1.05003 0.522925 -0.721676 0.998112 1.01859 -2.22143 0.205568 1.84212 1.87261 1.98175 4.2389 -4.49658 3.2899 2.34376 -9.60743 -10.8264 -21.3408 -5.39649 -0.777971 -4.01669 -8.28779 6.36478 2.59162 -11.0189 3.10425 5.79799 -0.926178 0.427392 0.688744 2.12991 -17.2492 -8.76078 5.70664 -10.4823 -3.23055 15.1164 20.7025 -1.44713 1.12037 6.54561 -1.39066 2.04991 15.0471 -16.8897 24.2343 -6.97488 -2.11362 -1.54294 4.49498 3.21796 1.99521 -6.80011 -1.33793 -0.512645 1.07139 1.66552 -3.23562 -6.43524 -0.693815 3.82034 5.83212 5.27429 9.49971 -1.31767 -4.86357 1.85748 -13.9248 3.91486 -2.82355 -15.6794 -0.16508 3.20143 -0.0619013 0.683042 -2.21096 -13.6072 -13.9138 0.389298 -0.766543 1.15568 1.10097 -1.87871 -0.0126865 -10.9101 3.49058 3.20597 -3.30865 10.1582 -16.7596 -7.66462 -7.93409 -9.1178 4.88656 0.223097 -4.64277 6.26237 0.30212 13.213 6.56589 -1.03542 -25.8306 -5.18985 -21.2207 6.73938 21.4029 -2.47418 4.75495 -6.36682 5.1357 -7.6995 -7.31772 -8.15256 -11.5668 1.79789 -18.9766 0.617263 -19.9252 5.46252 7.47393 -3.76583 -17.86 2.41308 33.6135 -3.05545 2.81746 6.00649 -46.4491 -4.40677 -11.3307 -1.56683 -2.18874 -2.6386 -10.0061 -2.29697 8.79509 1.6527 -8.12174 2.34273 -10.5579 1.08511 3.11525 5.79287 3.49113 -5.35324 -7.84743 11.9274 1.99411 2.43846 9.25607 1.34679 0.50992 6.75837 1.64067 0.278715 -0.708688 1.04424 0.796721 -1.33109 -1.18559 3.05265 2.7385 -0.348096 0.89811 -1.82884 -0.0848466 11.1492 -5.30804 1.08375 -14.226 -4.68498 19.6026 -13.6848 3.59147 -7.22135 10.4265 21.8694 0.915528 -7.00211 2.18232 5.19681 -12.3954 -2.15096 5.83301 8.67488 -7.16013 4.60073 7.50801 1.51953 -1.59192 -0.880245 -12.0863 -12.0142 0.708494 1.69907 11.5819 16.227 2.50523 -18.5327 0.936157 -3.59566 -5.12814 -4.63003 8.3269 -5.08621 1.14749 5.37923 0.745423 -7.73886 5.5927 -3.06141 5.16972 -11.6521 12.2458 16.3524 -3.24984 4.52271 6.44137 21.207 -8.48311 -16.2863 3.59028 -7.70044 -2.15589 2.20126 1.52489 -9.00203 -2.5564 -0.217259 -5.91326 0.0727019 -0.640016 0.838242 1.06472 -1.30806 2.28587 11.0078 3.43454 1.50219 0.600663 -5.5278 5.84186 11.2454 -0.419989 -8.14052 3.41096 -5.36985 2.76821 11.4013 -5.97512 -0.264098 -4.50003 -7.40235 17.9494 4.76949 1.75237 14.1923 20.3496 -1.04606 5.10409 7.55722 6.36849 -7.34877 5.74105 -79.2417 -10.8299 -5.70824 5.11449 -2.19401 6.96907 0.980537 0.933658 6.73691 8.1855 -0.627273 24.3134 -12.477 -3.77434 6.32152 10.702 -0.455749 -0.469136 -7.88286 -2.46121 4.33387 -27.6042 13.171 -8.2742 2.49305 1.46383 -9.39404 -7.65259 3.41946 -17.6835 -1.25264 -3.09378 -1.28487 -8.86822 -0.8955 -21.9384 3.13354 2.91765 0.521111 -14.6211 -13.1383 -3.95767 0.0937064 -0.807729 0.724235 0.881865 0.0355601 -1.40448 1.34184 -2.8406 -1.10493 -2.08002 4.8491 -4.98856 -0.968209 -10.4846 -1.08197 -13.2735 0.468137 0.34921 -2.51375 -1.40197 10.577 15.6599 1.58775 -6.95104 5.38489 -2.09355 -5.27992 -3.20875 -3.87654 11.6392 -1.60778 33.9765 -8.29753 -8.7327 -4.03973 8.72463 -0.811106 -9.43684 1.89575 -5.10853 24.9531 1.07748 0.695996 1.84274 -11.9336 5.60275 1.968 -8.07909 0.224366 0.355614 -9.61297 -15.0342 5.09337 -17.9911 1.81687 -7.48767 -3.48727 6.29482 0.638912 -1.87221 5.4889 6.20139 2.06777 -26.0787 9.36996 3.96421 5.91888 -23.6292 -1.44858 9.64105 -9.29442 4.17682 0.125829 -6.42984 -15.0039 2.25393 0.060616 -0.728853 0.717781 0.563491 1.79659 -1.71739 -2.21655 0.674362 -3.20362 -1.54869 7.49438 4.31161 9.13588 9.55149 -18.6947 7.99935 10.643 -6.16912 0.927751 4.71801 0.105549 -9.43809 -1.39783 3.85957 23.795 -0.927876 -1.35925 -10.2215 11.5529 13.6758 7.59349 0.957499 -2.6919 -10.2073 -10.1359 6.63869 -7.37941 8.79549 -3.92175 19.9362 -19.3566 3.79378 -13.1964 -10.6042 0.827873 7.18635 7.65044 5.34408 7.89646 6.41527 6.64647 7.59219 -3.31997 -2.32672 5.99751 -1.81349 0.626777 -1.93704 -8.12612 2.46159 23.9891 4.14175 5.72584 1.45144 -23.033 16.1504 -17.7104 -3.7999 5.70443 -5.84151 2.81556 29.0429 -4.10419 0.0603586 8.7428 8.71995 0.05394 -0.835677 0.931987 0.936354 2.40187 -1.9611 -0.785573 1.76724 -1.81503 -6.04412 -1.96673 -3.01842 1.25337 -1.40955 -5.33655 5.83275 0.286614 -2.29569 -8.82857 4.28821 6.87546 6.30547 2.97948 17.6995 5.99045 -1.51317 -6.50818 -0.0116485 5.60835 -3.85662 -22.3159 -14.9979 11.3132 -1.52926 1.77894 5.58803 -8.59772 -9.65046 -1.24563 -0.681769 -1.46427 5.6781 27.3058 -1.58958 -5.55965 -10.2675 13.1331 -4.94491 11.0514 -14.877 -4.21651 -8.51873 -9.26659 1.39369 -2.09125 1.26523 22.6839 3.24621 0.302795 -0.0319901 -3.41104 -2.97012 3.96693 -2.25444 -4.99913 1.86663 -22.1617 -7.2221 2.1915 -2.84909 1.88458 1.36247 5.82435 -6.34763 1.3245 -2.73983 0.110645 -0.77165 0.887861 0.999752 2.10786 -1.5315 1.89766 -0.848356 0.0983036 -0.0453454 -5.52163 4.81154 -2.82428 17.6937 -11.8613 0.6847 -1.63674 1.6508 1.85426 -10.305 -2.3374 -2.40046 9.65544 2.7825 1.79796 7.90282 -6.04617 7.83754 5.22427 5.63642 -2.80961 3.0344 -7.2465 -5.56014 4.04823 44.0241 6.44795 -9.25905 -1.76942 13.0354 -5.67647 -3.58583 -7.38393 3.17105 2.30216 -11.4995 -5.52175 0.71977 2.85361 -3.95897 -2.17745 -0.372534 4.22112 3.37087 14.2573 -2.74276 -10.5755 -0.574088 -5.69663 -1.52805 6.01922 -2.38625 -3.50289 8.0439 -2.45347 4.07495 -10.4063 0.910324 -2.55055 8.54927 0.795121 11.4977 -12.4379 3.23807 -0.135818 10.2954 -0.037311 -0.658109 0.795282 1.02465 1.24017 -1.24535 1.18457 3.16241 -0.9424 1.12139 7.88155 9.74983 19.3111 -16.2613 6.41805 -7.92656 4.87346 0.978069 -8.18084 -7.38758 4.59016 -3.48498 -6.21754 3.05554 -8.27742 -0.383553 -12.5561 -2.85857 -6.65201 -14.3524 -2.66233 1.05616 5.98109 -7.18198 9.39233 -1.4278 3.38228 1.26387 3.28894 9.5445 -6.48129 -7.45338 -21.4633 -0.0294244 2.13786 15.4987 6.14719 -4.72814 -6.26595 -10.1797 7.43068 -5.26547 0.452151 12.6536 -4.88883 -10.334 6.74037 -0.543267 -4.78119 -3.98887 -13.1658 -0.103507 -7.96791 -15.8734 22.9615 -1.07403 1.91194 10.7901 9.45682 -2.09214 9.76569 4.08569 6.02186 -11.6866 -7.55981 19.6051 -0.0341299 -0.844131 0.727455 0.625501 0.99577 -1.40524 1.87534 2.7673 2.4579 -2.19222 3.17159 2.68869 -4.03761 1.24565 13.4596 6.60209 -6.43005 8.31668 -5.83719 -17.7682 4.69899 15.6793 -7.14908 3.14434 -11.7881 -0.492281 -1.37701 7.24242 -1.2537 -0.54003 -11.9386 -7.59765 -12.6661 3.86833 5.40067 -11.1401 -6.17307 10.1252 19.7713 2.9337 11.2818 -0.59284 -3.40577 -5.0146 -11.4603 -4.09267 -10.2228 -8.25247 7.43173 -17.1791 8.37635 5.84117 -1.38383 7.09036 4.67351 -2.1886 8.47667 3.33546 -9.298 -13.5053 -26.7665 -13.3592 8.38912 -2.53221 -12.3765 8.13192 30.9794 0.369482 -13.0144 -3.92435 -9.23125 3.22184 -12.6946 0.472183 -1.96293 -1.70818 0.126299 -0.893048 1.11856 2.98713 1.18892 -2.09658 0.804903 5.99706 0.243261 2.18998 8.48211 -2.65194 2.16356 -1.58676 17.3451 6.95378 -25.1921 -2.51149 6.5057 -2.35815 -5.11431 10.0406 9.96099 7.18594 -5.3233 -4.71406 -4.1411 -15.0774 -7.98304 10.1113 -0.735227 -27.2336 -7.91711 -14.9215 -3.85422 9.10448 -8.13926 15.3107 3.86383 -8.18684 33.9896 -1.20145 -1.25873 10.3879 6.55269 10.3517 5.68247 -0.344257 -15.6948 2.62695 2.93349 -21.5744 0.338338 1.74836 5.74794 8.5553 1.94544 -4.59531 18.7704 9.57383 -4.69034 -13.4241 0.0679596 5.02978 1.43734 2.44135 5.56146 11.1619 1.19063 -2.02745 5.31258 -1.4159 -1.36778 -2.37945 -21.708 -3.72278 0.364579 -0.883626 0.951027 3.16784 1.65714 -3.21293 -5.48242 0.816547 -3.01417 -0.0994877 2.98714 9.18749 2.5023 0.408112 -1.68367 3.78469 -5.53256 1.17119 14.6585 0.908579 -1.72982 0.847986 -10.9961 -6.85927 0.973345 3.73043 5.46936 -17.7843 -4.73666 -0.123662 -0.0395792 -16.3425 2.90005 -12.1511 -18.7044 2.33241 -1.18402 0.832786 -12.3159 -15.6155 8.5736 2.42312 -1.69337 -1.81012 -8.42278 11.6133 0.653646 2.47665 24.631 2.00607 14.2815 -10.663 18.9693 2.18001 -11.32 -15.7641 10.2341 6.8876 -5.03591 3.21482 -4.96216 -6.00187 5.51482 4.53704 10.2052 -12.8044 0.849951 -8.81137 -6.16037 -1.11131 -1.91244 0.305713 17.3852 -14.7107 3.57523 5.01804 0.405968 -0.775665 1.03782 3.02487 1.01174 -0.611589 -3.46647 7.79928 -4.81544 -5.10953 6.2182 -27.2584 5.5347 0.217214 -0.922083 12.37 6.55457 3.53591 28.5871 -7.51286 2.24697 -1.59439 -3.53534 6.75905 1.05081 -2.36538 -11.8474 5.07686 0.610059 10.7957 14.8088 9.29698 -5.00201 9.60611 -3.91908 5.86113 -4.27539 1.34707 5.1834 -3.34193 -4.96191 16.7962 3.50273 -0.653992 -10.5493 -1.58856 1.72546 1.39435 -16.6375 7.46781 -15.0629 0.464567 -3.67908 0.554308 1.66312 -10.7572 -7.50203 -10.6995 6.26702 4.9278 2.17178 7.22649 3.81752 -9.88316 4.8745 -10.6028 -0.859177 -1.32475 -0.147436 -1.91611 -3.0309 -5.08255 -0.353013 -0.665995 5.20828 -18.7889 0.579057 -0.755223 1.13482 2.95392 1.51497 -2.67068 -7.25759 -24.606 9.1113 -7.99247 -1.91624 -13.411 2.86011 1.32505 -2.78413 7.30674 7.11957 1.21183 13.2803 -2.18347 -8.7205 10.5291 -4.4962 -3.33301 -9.33384 3.25572 -0.626092 -1.84683 -11.3575 -14.9043 -16.4088 0.0909149 3.49227 -22.4024 1.99904 0.666518 -3.88253 -1.43658 0.0645509 6.13119 3.31282 -0.0382762 7.21102 7.68416 -0.249852 7.4952 -5.48714 7.80608 -0.721718 -11.7366 -1.80113 -14.3104 0.408146 -16.2909 -6.05935 -8.4712 -1.67544 -6.05002 -25.3715 6.30823 -5.23164 -3.77738 5.33518 -2.45982 -13.6948 -2.01581 1.04016 8.78014 0.330726 0.353507 4.40573 8.12589 -12.3013 -7.68869 6.49092 7.56535 0.475156 -0.746695 0.876546 3.26195 -1.95907 0.294466 -7.37396 2.1409 2.43818 0.651179 0.433341 0.626493 6.42833 0.825877 4.66921 -0.845997 5.32189 4.51031 -2.42033 11.818 1.1208 5.07452 1.31464 -28.6035 20.7967 1.19146 0.805747 -5.19309 -13.4212 16.5026 -13.5767 9.79506 4.25656 -4.24107 -4.69231 -5.88641 14.3962 7.49293 -0.255109 -2.19154 9.7275 -15.4954 1.6084 9.37355 0.472363 9.19091 -0.692522 7.08876 -18.4843 -3.46699 -1.81595 -8.12179 6.3083 -6.08755 1.10711 -13.5294 3.98332 -3.18392 -9.23589 -16.9604 -0.528839 -9.11712 10.5456 6.29164 -2.84103 10.3089 12.8272 -11.9836 2.03876 -4.52877 9.8044 -2.91776 -7.37275 -6.36469 7.38514 -1.02004 0.421932 -0.732878 0.837659 2.53828 -1.9828 3.43788 10.3419 1.04583 -0.0490064 5.76984 -14.4336 5.81227 10.5156 2.69727 -8.56258 -6.9271 -19.3586 3.58017 6.60806 4.92246 -4.73305 18.0232 8.2267 0.292432 -7.37289 6.5375 13.9641 9.6306 -12.8524 0.654632 -3.56143 4.29226 7.16749 20.0803 3.99009 -4.48088 -2.87175 -2.02585 1.01058 -13.8583 8.7268 1.92568 2.60309 5.69217 20.9865 -1.89886 1.01043 -8.62157 -4.68171 8.77135 5.17303 4.67915 0.30164 14.4032 8.09466 3.57017 -1.62724 8.03397 7.93455 -11.0563 -2.25148 16.8207 -9.0354 19.6857 -2.86702 -5.66189 -3.14432 -3.98811 -9.05921 1.69906 16.13 20.3589 0.0911381 -7.47555 -6.26989 3.47137 0.455162 -0.648825 0.824395 1.83628 -1.53478 1.35439 3.36013 -0.176713 -18.3969 -2.21476 -4.46629 -5.78121 2.3515 9.01496 3.89342 0.634242 0.231725 8.85033 -15.4719 1.90299 2.17009 -9.82005 7.4417 10.0636 3.01345 -3.32741 1.82903 -6.44288 -5.1211 -10.7059 -14.5433 -2.8484 1.25501 1.38166 0.333333 9.57592 -0.936619 2.10047 -14.7989 -2.32051 -0.311045 -5.1324 -14.9525 -3.46232 -11.7774 -2.1601 -4.79746 5.8497 9.7373 1.35867 -8.23943 3.59145 3.88804 3.30078 -10.4589 4.44782 -3.65244 3.8589 -0.512113 9.24906 -3.99848 -8.14569 -3.53131 11.0151 -3.15022 0.706478 10.9512 1.86822 -4.86039 2.26911 -1.11896 7.29259 -13.2002 -9.81336 20.5964 -4.14558 0.212712 -0.722508 0.917065 2.27947 -1.0338 0.348936 1.98547 -2.08236 1.1473 0.839187 -8.81343 -4.87685 -7.69779 3.02429 15.4874 3.5841 0.837413 -27.9456 1.09406 11.612 6.40395 3.57522 9.73833 1.03262 1.71823 16.3802 -8.72214 5.77447 9.22094 -12.0729 2.48815 -1.98868 11.0698 2.69524 -4.74847 0.942175 8.55932 5.14747 3.9241 19.4102 7.94322 5.91434 -10.8233 -2.66551 2.00459 1.02325 -0.382713 -43.238 13.6434 5.15012 -5.87701 0.933764 -11.2668 -0.0375832 -0.905586 7.67277 -2.49846 0.440213 9.07825 -7.07653 -6.24806 -1.3372 7.70519 9.8938 -18.1566 -10.9047 -5.32235 45.1417 -2.35237 11.3894 -5.82956 12.2103 -2.25481 -6.49435 -14.9083 11.2531 0.266424 -0.749588 0.940648 3.48106 -1.6849 -0.539032 14.7491 -10.3327 7.38667 -1.51957 5.79424 5.33913 -3.64364 32.2016 -0.671403 -8.20514 0.983569 -6.69412 0.521586 5.22797 -9.61307 -6.30201 -8.33031 5.59989 1.39247 2.95523 -13.1883 -1.07223 -8.28033 0.0922075 13.6246 6.53736 -6.18718 14.0978 5.59228 0.365592 -1.10161 -4.57611 -5.8071 14.783 -8.2174 -2.67567 -2.04168 -6.34956 3.64406 -6.61664 6.93245 7.87995 -5.65235 12.8154 1.17105 -8.80666 -2.11898 0.0461606 -24.1707 -2.755 7.62578 -2.11365 12.4479 15.1575 -4.62219 5.25973 3.04985 20.8516 -3.00781 7.49711 4.95825 9.27801 3.82006 11.331 2.37598 -0.461894 -3.3962 5.68267 -24.3345 12.6272 0.168955 -0.626125 0.876117 3.12065 -1.48633 7.15925 -15.1544 -24.3284 -9.40081 12.3135 4.25666 4.0635 -7.00927 -4.58938 1.73994 -2.03229 2.62682 -2.93976 7.68171 5.3854 -9.22199 -2.91561 4.987 -39.2719 0.878183 33.1776 -9.0213 3.08322 -4.60619 8.76078 0.61988 3.84071 2.69444 3.86782 -15.6475 2.41204 16.8736 -8.03226 6.05403 -0.867047 -1.09867 1.02186 7.61856 3.53621 3.24234 3.0102 3.82566 1.31299 -13.8732 -8.35693 -0.657299 -2.93032 -2.47671 14.1257 -9.42519 -10.6754 -0.839282 2.77023 1.19852 -3.42603 -2.74277 -5.49319 1.0973 2.42842 2.27773 8.20724 5.61045 -0.518753 13.6284 3.24488 -3.62598 -5.18388 3.59542 -8.36991 -2.7118 15.5072 0.365132 -0.858158 0.935941 3.09745 -0.120711 1.05719 -6.73985 -0.369146 7.33381 -2.84597 -2.39189 -2.83406 -7.81515 -7.90013 -4.28854 7.14185 -11.3986 -6.54395 6.59474 13.2815 -18.5236 5.86073 4.72838 3.90917 7.23893 7.70465 6.91428 -8.98443 -1.45766 9.93877 -3.09334 15.9601 -2.60265 -4.66112 14.9731 -8.85946 -4.58985 9.29007 3.33124 -4.55692 9.65667 -10.9038 7.74985 0.185483 7.86942 -1.55056 -14.9228 -0.0629531 -2.73915 -2.9806 5.19922 -1.64104 -12.3925 0.881015 0.449703 -3.21185 -6.01668 -1.70322 -1.33509 3.5423 10.281 -1.97893 -9.92306 15.5604 -11.8079 6.1047 7.40316 -5.15389 -6.30131 -5.73858 -6.57107 -0.231519 -17.4247 -5.53516 5.71038 -5.58055 0.382382 -0.8601 0.928232 3.11365 -0.32049 1.59519 2.5163 0.266513 7.75962 0.605368 -3.32619 13.1411 0.556074 -0.939817 0.255111 -3.97506 3.41175 8.14916 20.7166 10.4792 -12.2644 -1.84155 -2.6176 -3.5704 -21.5644 -12.8522 -3.32479 3.0788 -2.22111 4.02601 1.81132 -2.7531 9.88898 6.5547 4.93263 8.82846 -2.41166 -4.05418 -18.7988 -5.37573 -7.52078 -6.9864 14.825 -7.53667 -4.10032 -2.30824 -0.129518 1.27981 10.9075 -4.32403 -4.3896 3.32911 -2.86288 2.11925 8.96308 0.134119 15.6159 1.67258 17.4939 3.23217 -1.59608 2.22076 -6.55001 -1.46066 -9.63355 4.93094 -5.49705 -2.60197 0.537047 0.106415 5.79721 -6.34827 -9.40327 4.4288 -0.752268 -7.04121 0.257583 -0.750068 0.949499 2.68994 -0.85157 0.995904 -0.980198 -5.80661 9.90525 14.0558 -7.13195 2.46608 0.939533 2.66532 -12.1331 3.60697 -8.73722 -0.513857 13.3305 2.76671 -18.4025 8.07394 -2.91833 -17.4727 -5.94585 14.9778 6.45142 -5.22063 4.0813 5.46575 5.10589 -14.9852 0.398756 2.86799 -7.42495 -6.27913 -20.3253 -4.3747 -5.07002 -0.599292 -9.33711 -5.19602 -5.71637 -10.541 9.70239 -14.7913 -4.10131 8.1187 -4.2237 5.25868 4.30798 0.0727772 0.220235 -8.08311 -9.23472 -1.68178 -15.8859 -6.48033 6.82261 9.41341 1.72131 -0.444351 2.94466 3.98375 -1.79512 8.46364 1.54947 6.68444 1.07394 8.3572 -6.64636 -6.24363 -9.66875 0.56761 15.4194 -1.35236 0.362959 -0.843706 0.945275 2.15058 -0.639223 -0.478374 -0.848005 -2.87667 1.41859 -2.96345 4.27199 -1.55276 9.90844 -12.5055 -6.95758 9.51297 -0.861269 -0.911636 5.13393 7.37132 -5.18979 4.29783 4.42532 4.51558 8.66581 -4.59037 22.791 13.1497 -4.29555 4.45448 -15.9529 2.76421 1.84685 28.2787 4.30991 -1.47111 6.91769 0.636645 4.51783 -15.8114 -8.807 -14.8285 1.97649 -0.868095 3.13005 3.13216 13.5671 -12.7541 -4.1468 -0.970352 -8.29049 11.7544 4.21859 -12.7706 -7.8585 1.16629 6.95706 5.14358 15.0567 -0.463748 5.48614 11.4605 16.0471 -1.44984 4.13431 -25.8021 -17.2477 7.67329 5.84269 3.59263 7.10532 -1.92691 31.2902 -6.18031 7.72345 9.36954 0.282234 -0.703714 1.04009 2.44192 -0.66816 0.36915 -1.77114 -1.31864 -8.18018 -0.858575 4.67348 -24.437 -0.32299 0.611693 4.92747 6.83306 -7.16949 6.08504 -13.8788 -9.81392 -2.29725 9.54406 -3.33657 9.83755 0.644461 9.81726 -13.6246 1.99456 -3.11577 -9.61472 1.22241 -9.61627 16.5675 -3.077 7.17796 14.7162 -15.7992 -19.0641 -1.17607 -4.54773 -12.3485 -3.99998 -17.1433 -7.94051 4.33584 -8.88157 24.5669 17.0744 -21.5303 -2.57222 8.25593 6.14474 2.31474 -1.42856 -7.04953 1.46521 -4.71595 7.26239 -3.4114 -2.53479 -0.813109 6.03148 0.161635 -8.84962 -26.7669 3.49892 2.41772 -0.190649 0.59099 15.5803 5.32324 -10.2638 3.24532 0.690027 -1.42242 7.15768 0.411292 -0.791713 1.00222 1.47784 -1.23626 -0.449064 2.46103 5.91812 0.638264 -3.20953 -2.93331 5.74791 11.6642 7.80764 7.2938 0.0575536 -17.5052 4.76763 -10.3469 -9.07974 -1.79481 -6.33462 -5.97734 -5.16639 -5.5716 7.46115 -6.81868 -8.69515 -3.76406 -20.0472 11.7088 -5.73739 1.76007 -1.13759 -11.6355 4.12234 -7.31221 -25.1154 -6.74748 0.260673 -3.30827 1.2799 -40.788 1.29881 -3.4475 -5.5446 5.43539 -0.326176 -13.4227 -4.1438 -13.9011 -5.56412 1.41192 -6.96508 3.04036 -13.7983 25.2451 13.864 -1.9825 8.63409 0.564589 -2.68563 2.96286 -9.50969 -8.90224 2.92829 2.2595 -8.23878 5.92384 0.162652 0.992528 1.56222 2.167 -8.25565 2.15407 10.3426 0.30126 -0.862261 1.07252 0.157296 -0.946893 -2.04806 2.57811 1.78344 -10.2357 2.97931 -0.296871 0.348413 -14.7433 -6.65179 13.1556 6.86919 -1.86986 -5.53755 -3.86126 -1.45877 2.84486 -11.3015 6.1988 -6.75201 4.02021 9.03097 -10.1641 2.21177 0.756575 -9.29484 -2.77793 11.1008 -10.4939 3.9763 -5.82934 0.681452 -15.861 17.9881 0.750402 0.986195 0.928636 6.06239 9.35849 -2.49684 -5.15091 -7.27605 -6.6224 -13.5026 5.88626 -3.42421 11.3396 5.59702 -8.00343 -6.14104 -1.40771 3.42242 3.55783 -7.99698 -2.59574 -6.27042 -5.24817 10.3252 -1.82632 8.00192 88.1874 0.021239 -4.71556 9.07706 -2.91049 -4.33405 -27.8708 18.774 -8.65211 -1.64378 -1.04961 -0.246475 0.416692 -0.702263 1.04934 -0.211029 -0.932673 -2.08097 4.8961 1.47555 2.91481 0.498607 -3.87149 2.62835 0.156278 6.00908 25.3536 -0.615775 6.12403 25.0526 -12.7545 -2.94751 -7.54569 3.89686 5.03602 -0.669534 -9.63126 0.63306 2.30834 -16.6091 -0.285357 -35.8988 1.00676 -0.25345 -2.1819 4.04637 0.506007 5.62078 0.365506 -1.26317 -11.5513 3.95602 3.02582 -13.5243 9.24895 7.37664 -9.74194 5.16469 22.8187 -6.63227 11.9626 -0.838375 1.06833 9.67483 -6.57827 0.818323 -12.1194 9.52097 -22.3199 3.89765 11.0698 8.06029 14.3955 -7.60707 1.79314 -13.3383 16.9155 10.6009 -14.0127 6.80284 